function [Y,Xf,Af] = CivilSensorCalibv2(X,~,~)
%CIVILSENSORCALIBV2 neural network simulation function.
%
% Auto-generated by MATLAB, 09-Feb-2026 13:57:21.
% 
% [Y] = CivilSensorCalibv2(X,~,~) takes these arguments:
% 
%   X = 1xTS cell, 1 inputs over TS timesteps
%   Each X{1,ts} = 4xQ matrix, input #1 at timestep ts.
% 
% and returns:
%   Y = 1xTS cell of 1 outputs over TS timesteps.
%   Each Y{1,ts} = 3xQ matrix, output #1 at timestep ts.
% 
% where Q is number of samples (or series) and TS is the number of timesteps.

%#ok<*RPMT0>

% ===== NEURAL NETWORK CONSTANTS =====

% Input 1
x1_step1.xoffset = [2.50922116214901;2.79944231970425;3.05294269832444;2.81945084095554];
x1_step1.gain = [1.19318495272039;1.43773766744034;1.72854573778014;1.43729408010883];
x1_step1.ymin = -1;

% Layer 1
b1 = [-4.4578408764460801805;-25.777136603945731252;-6.290868698998768771;-1.470485128885891779;9.3001162426680981099;-1.8114442891238284883;9.4001259416093017052;1.7263598089629241805;1.0610973492939330676;3.7444694010894608027];
IW1_1 = [5.2952823262545409833 -1.3347528683107552361 0.044434968054681667216 0.17193959618922402544;-0.28355697881505564917 1.4255364694923353674 23.214946634445350782 0.24332960131824077354;4.3186575199993297858 0.88477314389429795316 -0.089586531425437113119 0.28360050530695524174;0.86703839290268380768 -0.76356783101764780231 -0.61537991433941019448 2.353114364321678309;-0.74657560187216998049 3.9664131482200084555 -0.23820921171325384891 -11.696730577667231898;0.31263274137815960652 0.32398218825048069602 -0.045393165475259220076 0.11554054338460827134;1.6066617261100251124 -7.1725715260892410896 0.78737281454022711724 -3.1600005280468352886;-0.83564885917599240894 -0.47500348574960921111 -1.2751381785739814845 0.43527561997075581157;-0.026702402066329206098 0.011008174664902940776 -0.23178477823807872027 -0.41102958206370954208;0.88159199687689426828 -0.67631349408216745456 -3.0949460512395114975 -0.44223973766525015439];

% Layer 2
b2 = [-8.0224172466657499569;-0.96177296858672733926;-0.320644216237275681;3.0008845734266507144;0.46444201289396608301;8.8924380327757130971;-11.181347824083957221;3.5039753157693596108;-9.8190664192079815109;9.495211102627980182];
LW2_1 = [2.2763275439291383861 -0.1865900476586327128 -7.3598490880294180627 -0.023221311421903444161 0.015181785105081394699 -4.7571836118163961515 0.10308511074722577494 0.37990941227898128441 -0.45944469774895435599 1.1339589894433184103;-1.4654545716691191881 -5.958665247721674163 -6.2400022241751154084 0.75387555810412121282 1.1274146765088122191 1.2682381870450480932 -10.980314178813763704 0.80506172232965922397 4.8221182266334219335 1.2143692854993581864;-0.17701100853656387413 -0.2053269095520559584 0.27146113974677743563 0.27551024067200957646 -0.03592403532043716291 1.5831123420262906976 -0.25957462347741117048 0.13210332688196832485 0.75116256601337516585 0.40324937895125456677;-0.29142480527572062199 -1.6688270440879626744 -0.79363528944947925314 -2.6277209326678807599 -0.014887434086372903358 3.1214189743723657067 -2.6305218642462455669 0.63937636830477473371 1.708369596227890197 1.3991395102027557318;0.063645138659561339978 -0.14182380021047630292 0.070209023812862772496 -0.060250045948535897733 0.013412249076304252199 0.51846183518241639732 -0.053447212204475263997 -0.024309646249434189308 0.43553370090701176709 0.047577025608474265983;-2.3634330540400978471 0.2161105547332875243 7.7254173242919224052 0.15794455290950035198 -0.0061600311838617928181 4.633166245766188851 -0.18396126526415129687 -0.37895085828450392196 0.24296271567392405122 -1.3318798800786340042;-4.4105221724616834322 0.78002561460893049539 -28.553990022609028188 1.08333899008131751 0.7271240589162667467 8.8976710684344393343 -1.8685525451477336123 -0.059204483429296232699 -1.0379703674626152843 -0.46941168258113497025;0.060500809910733109598 -0.4633863364075249125 0.88101333842887818992 -0.042253704216794578385 0.018132479822845357781 3.8040893109942635064 -0.14129197307108315451 -0.043797838593857087164 1.0928081873235107047 0.19199423437598239772;-0.13211183941898549388 -6.2750203925804610705 -0.22600678298393334087 -10.947525068043452379 0.24419227711378294066 -2.0662049538108262503 -0.73249543427346686109 -0.26690108761011216432 11.110243131450340925 11.560031370167349607;-5.0078539289402241863 4.3482996070813566547 14.959112676805016662 0.3649430776964018297 -0.85672422028071226752 -2.5093374327848736449 0.35728693082160262184 -4.6209864311437041096 0.51385348140666520234 -4.4649508782573779087];

% Layer 3
b3 = [1.007158619758110607;12.803382990499452276;6.9312309625189705287;8.9535416961301397265;-1.5147502800338272788;-8.4821450484978555551;-1.7171785059913049487;-1.3696724762816570031;4.9971236506591099058;-3.286786545429510209];
LW3_2 = [19.683382423800800609 0.17959820686566965731 -1.2147738840003143856 -0.26920939817503147795 -4.2925711600174532023 7.1311882840365052871 0.20437414035870257734 0.75626595398820917193 -7.5579980187538406966 8.9071261897834492771;-7.6420452940459870916 1.9524247038089626027 -1.782740507054572543 -4.0823251354375793554 3.1062384789941441809 -2.366661528005630899 -12.801119504281759376 3.0985774394477245686 -4.2463510287485775052 0.27883279624683526832;0.1020174107741195213 0.095023253310264413352 0.14452423997401356304 -0.53869327780465070532 -2.3701600478265039129 0.099281171597849562915 -0.5761606954791085311 1.3295364089644379213 -0.44828274862620920427 7.0934739065615026732;-3.8893142038476025135 0.17961100261763937591 -0.12856839825077809314 -0.26508801277625382298 -2.1352366006442520252 -1.3778699404732217548 -0.23675814673244344188 1.3116431363572258473 -2.5869496263895745969 5.3865101640619013068;-0.040787134691603686709 0.077346105761691597014 -8.6771796410911257169 -0.4753351719905208328 -5.265163295905344043 1.0409925676839157926 -0.14431398982722243307 1.8301523787891003092 -0.39579831185139058292 5.7944192033260737418;1.3726651712079291912 0.01024151575054487763 -5.4322241388714394006 -1.6710069435280110461 4.8201314291473682516 1.9434195662926538883 -0.77341392387408891551 4.2456243522810526159 3.9383717636217445701 2.7679377443712027684;15.148500991230875456 -2.1472649010614985876 2.1195307770159219629 -0.51498672218171226422 -7.904038508379694683 3.1755677808222682046 2.6728459633262073858 -1.5639274271661034454 -10.280168625444010999 -9.2202305559425496995;-1.1118927025174121237 0.1014198121766097388 -1.5206581444050872864 -0.12693940600934858209 -3.7331307592138296414 -0.29099405752377832668 0.039969205059091572618 1.3545786723686805697 -0.69203396202459832587 -0.17022856331875949043;-18.620865635730876164 2.7336809112314535142 -2.5944144689304113882 -2.4160916177046098952 -3.3984663505512240356 -4.9446669369955600359 -2.1434623768851794878 14.695256911574864134 2.4145839707678389274 6.7159439922485226759;2.1919466308359329965 -2.368716015531814989 4.9929264978841159106 -3.1021336627196447466 -5.3455126357625246669 0.52416833403524099033 0.87838646973674727736 -0.12393922603837373431 -10.039945087030440973 -24.625598895637878627];

% Layer 4
b4 = [-7.1853277485413578063;-1.8511615297720487305;3.07269831970587326];
LW4_3 = [2.5114553777521866351 21.122516456456427392 11.208473338983804268 -4.5860253639798145286 -8.4403904733116554837 1.2159105353521668658 15.425739312407452886 -4.4127317185132630684 2.1232958145320313115 12.522971417135849492;-25.564612020726208641 0.098666439569274705379 -5.5902458068086833265 16.825623815049109311 -7.1303958908408064943 -0.024572899220773644635 -30.230714579798931396 -6.2356184539430650204 -4.3954836087722783944 0.043376963338329570241;3.229436443876626317 2.9779694344101876879 0.39264820798204624896 -0.66942630508953804291 -0.24600387773029905314 -0.29644952151659165196 -11.054920384850044357 -11.161724294608175612 -3.1273272601620853983 0.37421685199345411377];

% Output 1
y1_step1.ymin = -1;
y1_step1.gain = [0.2;0.2;0.19047619047619];
y1_step1.xoffset = [-5;-5;-5.5];

% ===== SIMULATION ========

% Format Input Arguments
isCellX = iscell(X);
if ~isCellX
  X = {X};
end

% Dimensions
TS = size(X,2); % timesteps
if ~isempty(X)
  Q = size(X{1},2); % samples/series
else
  Q = 0;
end

% Allocate Outputs
Y = cell(1,TS);

% Time loop
for ts=1:TS

    % Input 1
    Xp1 = mapminmax_apply(X{1,ts},x1_step1);
    
    % Layer 1
    a1 = tansig_apply(repmat(b1,1,Q) + IW1_1*Xp1);
    
    % Layer 2
    a2 = tansig_apply(repmat(b2,1,Q) + LW2_1*a1);
    
    % Layer 3
    a3 = tansig_apply(repmat(b3,1,Q) + LW3_2*a2);
    
    % Layer 4
    a4 = repmat(b4,1,Q) + LW4_3*a3;
    
    % Output 1
    Y{1,ts} = mapminmax_reverse(a4,y1_step1);
end

% Final Delay States
Xf = cell(1,0);
Af = cell(4,0);

% Format Output Arguments
if ~isCellX
  Y = cell2mat(Y);
end
end

% ===== MODULE FUNCTIONS ========

% Map Minimum and Maximum Input Processing Function
function y = mapminmax_apply(x,settings)
  y = bsxfun(@minus,x,settings.xoffset);
  y = bsxfun(@times,y,settings.gain);
  y = bsxfun(@plus,y,settings.ymin);
end

% Sigmoid Symmetric Transfer Function
function a = tansig_apply(n,~)
  a = 2 ./ (1 + exp(-2*n)) - 1;
end

% Map Minimum and Maximum Output Reverse-Processing Function
function x = mapminmax_reverse(y,settings)
  x = bsxfun(@minus,y,settings.ymin);
  x = bsxfun(@rdivide,x,settings.gain);
  x = bsxfun(@plus,x,settings.xoffset);
end
