function [Y,Xf,Af] = CivilCalibFunction(X,~,~)
%CIVILCALIBFUNCTION neural network simulation function.
%
% Auto-generated by MATLAB, 20-Oct-2025 10:25:28.
% 
% [Y] = CivilCalibFunction(X,~,~) takes these arguments:
% 
%   X = 1xTS cell, 1 inputs over TS timesteps
%   Each X{1,ts} = 4xQ matrix, input #1 at timestep ts.
% 
% and returns:
%   Y = 1xTS cell of 1 outputs over TS timesteps.
%   Each Y{1,ts} = 3xQ matrix, output #1 at timestep ts.
% 
% where Q is number of samples (or series) and TS is the number of timesteps.

%#ok<*RPMT0>

% ===== NEURAL NETWORK CONSTANTS =====

% Input 1
x1_step1.xoffset = [1.66018141861239;1.62411718893806;1.44489513058563;1.43688436957262];
x1_step1.gain = [1.85760858332147;1.92134169525142;1.60053686792636;1.58367819665851];
x1_step1.ymin = -1;

% Layer 1
b1 = [-4.0408912708087187937;3.7036788872370269843;-3.8401027997017274096;4.089549073560050374;-3.2148310258926731109;-3.4525156940368915137;-3.3353847530421174561;3.1936144181607919457;3.0153983511012416585;-2.8484374307696005424;2.6200904261469828427;-2.5316303377050251022;-2.374917910829422496;-2.3033813624632375472;-2.2543400048320361151;-2.2269493108289015737;1.8178040035390721219;2.1017518707185738336;1.765809019639916766;1.9054135538607255285;1.42256826716424567;-1.5235384599314543141;1.0789006238277683014;-1.1876715627023459732;-0.87424106171422732992;-0.79400035333189655784;0.73090256110192619587;0.49635879362338525267;-0.51003626081537190018;0.057604512748612952955;0.31248985400998519069;-0.17607285222234791977;0.1359010657447247139;-0.1669394765286920379;0.42658483970262212059;-0.44559333588883870414;-0.54961169289223110734;-0.68335600318931255526;-0.87066307113289975739;-0.999587043046308521;0.78831628799792419215;-1.1868814333440229625;-1.157574708084789572;1.7913683823108279558;1.5613458978337593219;1.8798228053854522113;-1.8446306154482252637;2.0369472371194956573;2.1573180723744678211;2.4200180647921429866;-2.2884611860364483249;-2.5251702924613170786;2.60301883299363368;-2.7646370540086455669;3.2542471744664509536;3.0589258792698128531;3.1776138106400875216;3.1727895458326496048;-3.3389563553460188672;-3.4556239274298334863;-4.0607879156192412395;-3.7502699662867855501;-4.4343683234635511425;-3.9784396044328129705];
IW1_1 = [2.2985310481061120846 -1.7038493711898441418 0.61897293365992012149 2.4295456587486059519;-2.5529403477706535952 0.82762884023953442458 1.7881859184941659713 -2.4653335078477849329;0.34459650425473609126 2.3337603140407203739 -2.60593855694421217 1.4903788592141065106;-2.3744499160035821284 -0.17820871771353494206 1.0561585198743457248 -2.5042558362463553934;1.5652070435515075264 3.2683002076017722004 -1.7262408162873701389 -1.0977255956806024617;2.6157634132003120264 -2.3282639283953021625 1.4571561371027654808 1.4826899727929934159;0.95670429292448011527 -2.5887943376488324887 1.9249144096641064294 2.3332387840404451573;-1.0179440660575418409 3.3684605717685647264 -1.7248914075741501595 -1.271111068707900138;-2.3327960789046349177 -1.818642359692301369 2.0182369592785946999 -1.6395273162689727453;0.87700204380111379532 -2.0824409692493612845 -0.51039080326962504852 -3.191599720902118964;-0.73175217991254104533 2.3886093424355694381 -2.7974424096532972683 1.373783887188581021;0.31897524249613024017 3.011080995332642285 2.6215230169565613139 -0.41102896793694515543;2.7613150026307216045 2.5187613629973291118 -1.0001623281444917968 1.715407538083628447;0.87848024035383953656 0.38113005227099028271 2.3108617482133388954 3.1454988846996552176;1.4017097034660199739 -3.1224578314964093195 0.70384689047791559879 -1.7384415126126924189;3.1358557613228930094 1.0398258047983834906 -1.9982611620458206048 -0.53389776565974222944;-1.3209683050519152037 2.7306971925038956428 2.4466904647140381712 -1.1054784260492336312;-0.13241034647790572709 2.9882234606086934825 -2.2769405138170908387 -1.4773551778251317046;-0.80864194395666044723 -1.1284560604956981322 2.1062568939179682204 3.0303041894591800087;-1.3798973842492239239 2.6259900488239722449 -1.5624488358934689458 1.7929090724189529205;-1.1994110617122593077 -1.2399597478150963248 -1.3966460744020405826 3.352503803396495563;2.0187629806150790834 -2.5006915167029868385 2.3294778875165977894 -0.2382619964965657644;-0.42367876857322994688 -0.77952325347549589196 2.4405640519437112879 -2.9796831844952924584;0.39854659395873909267 2.5552560010286020642 1.3082966224570435898 2.5513476543741631097;1.0655441682543977944 -2.3704066399586234404 -2.3203308360458905213 -1.7902567443096657485;2.9610891004396040493 1.4544935785294457187 0.76376021110439951123 1.9948223438734646873;-2.6519868522423108992 -1.1695329789243307239 2.3424985138957530317 -1.507706202671357465;-0.88053182876447921856 2.8817339926774558911 2.117716693494515301 1.3374309118876366309;2.7632851174422516927 -2.7484165771306230397 0.96818653568537871301 -0.59904607675785626064;-2.5105467483707197829 -1.1106573760911127025 3.0436751263875025941 0.069386087289062509109;-0.41185050141794621315 -0.0080490572191100426963 -1.9914594014377524633 3.2562276681617423613;-1.8015497113620921876 -2.3717046216338077969 1.833435560053871427 2.0259461640935239046;0.35096643957456141738 -0.48453739106045812246 3.278808330502683166 2.1157129297215901964;-2.5958380812207324517 2.2599725949451077156 0.91529115877315703198 1.829469176346051551;2.0005083960303515767 -1.9214270443795224974 2.0101813892739035516 -1.9552439530076919372;-2.1149159421178147511 -2.1279670472153857652 0.58322351423905827161 -2.4151257732391573363;-0.96971459738278675822 1.9156565965051099987 3.4292788778027127883 -0.68078434565539391876;-1.8266162795195313162 -1.5027085378917615088 2.5058439604330255968 2.0040124341195775237;-2.5948488322977891762 0.22495857768464733173 -2.2635718155195423407 -1.8868966721269937459;-2.2986982038173433551 -2.5268043308093277588 0.29838546209645222529 -1.9727918224481117981;1.2208745091794963589 1.5013390092945153587 -2.2499669164817155398 2.7026451271267983856;-1.7054067192387649676 -2.8266915297128600848 0.76340281957710176552 1.8977270906644052584;-0.86287290219362677846 -2.3501361650265444325 2.951628225132250094 -1.2909181632005737317;0.57635634785187506157 -3.2657994435721362514 1.6500044621033185255 -1.0871192099525872621;0.028867304515285911043 2.0337937707996980308 2.2336935810797617918 2.5882642050241257969;2.4494406007316031904 -1.7276015876898167534 1.3675891505728450248 -2.2452387830490905252;-0.14127538762017180507 1.7207560446920668884 -3.2569005558118608867 -1.4673026231360108973;0.048851732302635911265 1.9107617592674606133 2.6773486164894970685 2.1417828063835862018;1.800669553935190903 2.8722766088866209522 -1.5535173819413341523 -1.1819290462417417764;2.9043388742159890192 0.48430071442011446425 -2.3468937954176269933 -1.0900634505413904218;-0.34944339352217945738 -2.8552940524355681085 -1.2130940558870164647 -2.4109119207246556549;-2.7570447712532191176 0.31088264463648768166 -0.33944891957849804287 2.6424422431024847668;1.9126491188096117479 -1.3044339906256672279 2.9832037289106558831 -1.1211401086989112308;-1.1177180001689754896 2.6851735033798402874 -2.6183083996724554332 0.43336677135689288809;1.056767756830031546 -3.4869352361409817753 -0.87512788433968558 0.030461487809650598935;3.232879587882973027 1.5572248142584181885 0.96996250754833057695 0.95041104327510184113;2.4682310366651489808 1.8292536280585454112 -2.3422431220219355197 -0.31082208179960157945;1.5894548241734185456 -1.6082546386234157776 -0.080991322207930649402 3.2428424643079778456;-1.1534454596175014451 2.5207389829584863072 1.847532728254163592 -2.1928233294342636128;-0.8360351014971287853 -2.5914775717226961049 0.81710449017278752315 -2.7149791484003285014;-1.4290613034696832973 1.8773820926571989087 2.6856199222693342143 1.6785901074659701493;-0.81638450134933704394 2.6268011816780578727 -2.4217284039893129943 1.3936715036084279529;-0.28062290848217624761 2.5833779480550029817 -0.47797267003207083436 2.4875109346355510631;-1.3733590404776434557 -2.5637663137208659414 -1.4723130633593941585 -2.1674912929471394918];

% Layer 2
b2 = [1.5000357020518715334;-1.4657172073219275621;-1.441738347569147205;1.3482851602419414494;1.3249371701946197621;1.3211024627194318803;1.3009463341742959486;1.2353888514812558785;-1.1639335829012154022;1.1035338185723013726;0.99105480290260994369;1.0236723283383657446;0.93414366611252797057;-0.90038315361271181736;0.85737288214049456325;-0.7848817501126450491;-0.90197573618987647581;0.70113420283011995693;-0.65558657500241979132;0.64601872664150228331;0.411696728179805016;-0.58649118461861837748;0.5040237197887688092;-0.45921013423552797805;-0.37510631437628855211;0.24809114734940870828;0.25613188090720995227;0.25352584445689901882;-0.0058285826041738885567;0.1147024131769523031;0.068609126803438474917;0.022434647862863459772;-0.088702555931623891516;-0.1504351306374080155;-0.090269920393647132273;-0.25865363418361470016;0.22061993702198087752;-0.36855985511007849365;0.26519080741032363679;0.26928450175509138775;-0.35088469600927923997;0.55395858487219651334;0.39699609093722787456;-0.50060055186923546611;-0.60215295457046136285;0.64739418279569904691;-0.73123593765332584038;0.75341825090034497681;0.76916599375651018011;-0.8840530944255464707;0.8073440194614407428;0.94442335391162757219;-1.0033774797650638622;1.1407557912894399355;1.1305989844426649338;-1.1285363864907713705;-1.1661510999395774402;-1.2313453840619266177;-1.2671816015280368273;1.3465550495385962826;-1.3342569525966048172;1.5170571102590895141;-1.3833674831445132991;1.5180895252818744634];
LW2_1 = [-0.19502077479272997285 -0.20809336851938900481 0.29191529709763358591 0.077830524155450747648 -0.077444902931566333981 0.16718597732166851078 0.11731208460648821779 -0.23313243534144151292 -0.087537134012957956708 -0.12325968097678915991 -0.19032702763239534027 -0.20878618627365913563 -0.49685368819327213608 0.041457746595614936025 -0.18934997875024051073 0.21599250154388860423 -0.14593618850593262359 0.14297324186857829353 0.20289775532483811382 -0.15905050115621571782 -0.12855960395063609214 -0.32901082318317997899 -0.0221828245607510674 0.20154281116974595567 0.22109341445015404104 -0.15619742990618620815 -0.1147618648788241158 -0.12557877687894292151 0.11257945410587914814 0.17474594321886685599 0.024150036806119469512 0.16525459231507544366 0.17161315936385815317 0.061373373289430696587 0.05850675367159564183 0.13166789853455429515 0.25895837839721203011 -0.20196397547637387482 -0.031736954703007157208 -0.15821166308846335014 0.11211023665353907208 0.38648272132390137923 0.069483528238394667853 0.15006891960258386676 0.092325362687641063242 -0.33483706356344072885 -0.34283823945372843278 0.1640980501453563889 -0.11140729336434920804 -0.19080785211224277065 0.26553719968938527263 -0.28570777920338435996 0.14547292133681496984 -0.1414747016589772699 -0.10564998983869207383 -0.089622834929149630678 0.28038383386899623506 0.10010536894130628305 0.08190147949858624099 -0.33807430279202971279 -0.052923636683607971909 -0.10869588553519815566 -0.066221511684338679737 0.12735699131094041503;-0.083151030935345107697 0.10764360977648988749 0.3178471613917416283 -0.21851385730225353354 0.092403312788319535986 -0.11177363146596222543 -0.16074474516121187162 -0.21293835511338291 0.5538634978783113505 0.28320249571212413597 0.1171452308361106559 0.34180977736101531006 0.089724784476589020121 0.25169778850618540478 0.16284479532123513623 -0.15415545884412840127 -0.033605495777411162339 -0.23311208594421439777 0.16975976740331796822 0.2882801652534736081 0.34078060105667790092 0.00041975429288118495507 0.0037153086816345201604 0.11722349686318808692 -0.020668851325478430903 0.19350104937123210891 -0.12282217712503457063 -0.16442670560468061747 0.21338086622850552243 -0.21802464194183626689 0.010094680066327839027 0.18643567794992998987 0.10887030454533744295 0.01256918065912320491 -0.10411946433932660339 0.11038966272059373697 0.30640013764442947108 0.015610601717751299358 -0.18615263337526416487 0.34534486197226510473 0.16647006629704000358 0.094107844073581095601 -0.39410721124994441134 -0.014122046241080087395 -0.03769214934939113526 -0.17708954197462858926 -0.18824003363575136927 0.078496651027478617224 0.22416479219702634129 0.39568411085836235896 -0.17119000368056611072 -0.23766789396396403866 0.18246589244575470157 -0.23992245979828208391 0.26218852730158281883 -0.24801758908714516272 0.16223351010650347015 -0.081835140835880185173 -0.41598469566952461784 -0.25007628929387026862 0.23428460423729660644 0.0010971361382185582014 -0.034672261123101413838 -0.34553311493679228494;0.28651817011531677259 -0.018582844532520390035 0.11617134363610827352 0.152008399439800157 0.16189673515610322752 0.059689990733264600142 0.19975005211562596452 -0.12831316089837657701 -0.070018237108603484375 -0.11419283754601258773 -0.31607793294912195359 -0.11122090691057814893 -0.25187999909232139384 0.27150237200443205765 0.34869303598861967064 0.35768253942537664436 -0.29549445923589229279 0.043984911425470112067 0.038225044364603631697 -0.034505764380561181059 0.21487552553406330524 0.25767482616793807582 0.18307359140708143186 0.011556278400018875352 -0.034039199184063784198 0.070984298794827177526 -0.1199730765893915474 0.11409751387604917527 0.084125311705917610317 0.2389629771004974923 -0.22555058911887318485 -0.17466465212017068254 0.032163553160043018009 -0.24080117468479689258 0.055455303708364142579 -0.13757337179798809212 0.068018950559930305144 0.19889477487240836417 0.29691135513863592399 -0.074475296160110143751 -0.3386091750788530752 -0.053423276468653108084 0.095014788317244830429 -0.045431842442060409171 -0.08922336193899702006 0.14367016331461304746 -0.12381109713155918906 -0.23557496049842349684 0.2978152376642401733 -0.39154568669304956607 0.20195204657427265338 0.25824694914044138416 -0.091932983462605921687 -0.036331416683611027219 -0.22515255936235492595 -0.1066724833481650786 0.047622043456993896904 -0.089550334920831073382 0.26915547201861839133 0.33981698494107931419 -0.055125264298945146624 0.18782837265218343958 -0.23439008868473432123 -0.077413705363450005525;-0.2357533309331592275 0.082032027437983157103 -0.025872004872147372212 0.27687766088885829019 -0.29547478366570278929 0.12543320860759896163 0.015001205016249668373 -0.0097540996363087249105 -0.22795079674214530074 -0.020088339402582727766 0.14884034876238438905 0.053096577339888748059 -0.13366961081791747801 0.256769293240286689 -0.044721548621756632147 -0.17564186824109745411 -0.33562294907970341429 0.14364781510505003626 0.17977982775311354691 0.061467960914437763664 0.24644412574527313486 0.25079018257427876382 -0.29991460678908704596 0.10188256390912496518 0.3236891753709967845 -0.041605201776057927632 -0.11480817785480752768 -0.044679742776635021639 0.13589351373104230358 0.59792208747114328204 0.20951136651834678659 -0.024310496458766678307 -0.080294948963979942413 -0.099282806495067946195 -0.14257787534353708048 -0.011444007669495215307 -0.030923068931682250182 0.39643563730789888044 0.19473680202268395245 0.016894871259900270249 0.3514334919437051008 -0.18688662446358600411 0.32104230293406244012 -0.20374059657973031534 0.13761098585336967171 0.046762117626328612852 0.17630881060877620636 -0.2627326966084749249 0.0077962883891526217617 -0.30574395335126502982 -0.26842901929492879454 0.042649491200332678709 0.19905500751665902714 -0.1668175818246258324 -0.20056108747948026005 -0.16737817394297388462 0.066869306740526088251 0.44620738437728479919 0.17429372299526843526 -0.13499683851632807152 -0.10568332046073326824 -0.20143871720501549394 -0.24642920101482515549 0.0191051173306886167;-0.13212494960992199333 -0.17984756444298866107 0.10333245155725577502 0.23246957373186769025 -0.28650983526151574399 -0.29277186687365441831 -0.27265157169793924341 0.099932114537268662557 -0.03114340310824065608 0.027015075566413946501 0.12985626843942962849 -0.3289432574187581837 0.25356468398184683899 0.25994440111761912826 0.11440395712178176579 -0.23280123569514621362 0.18033015397958360171 0.21661754554672449369 -0.14211294702764704079 -0.11706403181610883224 0.22554199819308728969 -0.26059846579089218643 -0.13766301704774489001 0.24809188974894003099 0.0063373539296345572647 0.17650667700121411285 0.11611869103520117141 0.077148445627558306925 -0.042117706643208560613 0.043513984454123418033 0.23759586797631884747 0.0018186311639135522428 0.18846320104669569973 0.089972117281773289488 -0.12699125916581863183 0.25176367346213468501 -0.034926078424596142258 0.25996680835583674263 0.17229351987083191267 -0.23542153819310204788 0.15107373346470109876 0.047875966493291684245 -0.28446144948369939121 0.27448420070562407069 0.25576232827540879011 0.25768137834258669772 -0.032674773425812472794 0.19390016926105771433 0.20048039132548919894 -0.25713734143711886038 0.16730488219906913816 -0.058629801374722595453 0.15755972211166668906 0.15815718252294150292 0.006293044525937848202 0.30347999581512646872 -0.20429721303553260991 0.14801350110575930974 0.12622460538608940017 0.26208757432051899006 -0.1854565263985959167 -0.02727201867130391727 -0.026110993564540035256 -0.1900768226097702962;-0.22061822304351969004 -0.096065203144315755579 -0.32330857368591042755 0.12567650448408579367 0.2276695756359349565 -0.033478699448905774316 -0.23400384565233850465 -0.0086546451204707955385 0.031496022748708399353 -0.22239272400867762802 -0.10755835498668177286 0.15667407988153686516 0.20513849721882287946 0.011768339656488857256 -0.18797528713453687255 0.16282080651378000313 -0.17005038099849892341 0.29472198215202094485 0.11955199951410119819 -0.25311807312854434082 0.10883995019300478357 -0.37420782305272232149 0.051847337942881870088 -0.21181758266678341052 -0.21896051092439039465 0.3005709563667530726 -0.092719706533236537216 -0.068480320608699560281 -0.15318053184538668599 -0.045414285078727655021 -0.13681441247950321127 0.12030779284253451111 -0.15245596839473707362 0.38388180790896542227 -0.02967764885424444346 -0.42884524272572821513 0.053870910105695217485 0.067078528657257857626 -0.24592506169275665795 -0.18748300540645437828 -0.13420075192873132108 -0.30697710877322037515 -0.14122675059834760569 0.032791548175134070664 -0.2000295401527253103 0.057084547717183423132 -0.33624402819441145951 -0.079490742240237804994 -0.12025156748748221103 -0.14232884166655523916 0.17037657980939327484 0.015901154628867819607 0.11154763590353047875 -0.019773609607720971787 -0.17560013395739854092 0.27498702650001272119 0.053184292204892923139 0.16950965260215744568 -0.19929726506659822816 -0.0095662969013669430646 0.25366911541109282702 -0.027085835247531608871 -0.29354696931059476306 -0.35628875169952967106;-0.11538134684062413549 -0.089336628881862861773 -0.28772069016420881438 0.11479240123689296582 -0.30833250559260105828 0.28391283901819491797 -0.070165617306736843828 -0.25979227408218996676 0.16384761940892425547 -0.19135153548084987696 0.14046336599752259899 -0.18703279631817465445 -0.022733845101233270819 0.19902792540016453482 -0.074060928833448474995 -0.35257633482961608928 0.24968817220719002892 -0.16064601163391062366 -0.17692711402618155336 -0.021012546393195406791 -0.11490415647011115174 -0.2596562204126355855 0.055612340167963465742 0.084198905519440203626 0.20789994924788096631 0.32673820751274218477 -0.097246464020579237442 -0.22883585135918613207 -0.016194652236940939444 0.32355798981356725941 0.054665105946922178115 -0.083650010796078241859 -0.22734399140276986828 -0.31634740643456893405 0.31979935159433608982 -0.21992296013705212032 -0.27918211409345566887 -0.1949115829503724473 -0.017291461296510907131 -0.062345548502757655585 -0.1742781941084795283 0.30112742563301730936 -0.0035804506151264152945 -0.099635392844829404058 0.15153251250184476828 -0.033607319577783303921 -0.17991637372515717486 0.0049890191817903188284 0.28744047450170395752 -0.31245173330144698776 -0.4038221560107227992 -0.24979189982595489949 0.020866455372564943205 -0.081640997370182002979 -0.016059528591952750703 0.10874284853714355492 0.27755096601789142063 0.17585452724225736354 -0.029466541137382052523 0.083521108111599393076 -0.23983220684541783907 -0.23084094120338394251 -0.35839489901629223434 -0.0052964566238072122162;-0.19412283170562324996 0.04300011550537613525 -0.37535035668186261804 -0.27767341756991809065 0.085428909354988286085 -0.19460110934057900378 0.023420954158754427044 0.018064275165702248227 0.22747571509602845796 0.1870195080861693504 -0.17505885178916102962 0.13207238691289363564 0.20291013331826399102 -0.091327815256932551313 -0.11945034051216946169 0.07267992714473713034 0.013498509709441261495 -0.084281960737606229084 0.011386069249488553479 0.017316519388825665077 0.27864644529597243361 -0.40115771931455412869 0.2149660456880367887 0.23922167290565324316 0.190278096759361387 -0.12632007984735432737 -0.15225770490275425395 0.3965368089834988008 -0.23748264439761340716 0.20749902639628628465 0.052068689127803567673 0.30263714324116769427 -0.063022481817117934066 -0.29018026013982878286 -0.066834315012119935306 -0.17311262828272336312 -0.044306620090346360286 0.043513707650871556731 0.066826304549016363188 -0.22779053971465337836 0.20814869344275030438 0.05786871368005257199 -0.35706136336262567221 -0.062037160299320048829 0.32932897996158438936 -0.12695354066437544716 -0.22961405034350237941 0.051860531182978078513 0.022453472644974336453 0.23572256394693630321 -0.094402084092050045361 -0.038363573122058104714 0.15480855875555735168 -0.13563815746643329008 -0.17089702076816049026 0.0089276469541091727639 0.34256627769051711807 -0.059726976563641030749 0.27900767045761426521 0.16722726429354384248 0.21444819416206484242 0.1046235533836250009 0.15254107555803625429 -0.11535248305530219903;0.28031214610805449405 0.24587643241707585195 -0.1689879881231753922 -0.23311496554221303179 0.30862979688288616487 -0.21208157043991857083 0.34433203366214565344 0.20708405971977383864 0.1408433124636999656 0.048677997252105094372 0.25762869461555037986 -0.0090609799541222172531 -0.18270013258693504343 -0.16336969342164725516 0.072689134591539292241 0.0059162881412949137189 -0.11032845324471972359 0.093964386385843312599 0.11065022810997739156 0.042120705803451952143 0.25949498604874193797 0.29852310786996805181 -0.016636551583420571693 -0.22954792907042748107 0.23102981120911778024 0.088416616163721775679 0.11177198583597948434 0.15927297734003306728 -0.035824298293293060924 -0.14634140824007352277 -0.1118561831774918941 -0.13036847565063403032 -0.19881496222498679094 0.063556454959957084383 -0.037422453052286294706 0.1277013803048887286 -0.09240043889328568294 -0.15119163556773096424 0.2979595994578855267 0.086637410659738608998 0.22785314716558793813 0.19688418343061411808 -0.03312375429706217872 -0.32674886129178914995 -0.021672924978244047928 -0.22985812224245319446 0.27790845835868327462 0.30977016052288419701 0.22399554036267127488 0.049850287793620690069 0.28583926674697629489 0.18321159604777512153 -0.16263497191514519891 0.040990839378415210026 0.11500323833371679794 -0.17914172045757503771 -0.37474107199716483185 0.023423176783326941919 0.045550415199003338462 0.065750836309041951755 -0.15401209890855402374 -0.0084793726635921506246 0.078936512927655286265 -0.047662524256981142479;-0.14654378532433404159 -0.015092445214960151581 0.24582638426042727198 0.23516740119041484869 0.25309876310330536864 0.054877804640519924073 -0.3403792974299554297 -0.10006943605900678329 -0.080090184768385280778 0.059184603776919350593 0.083999239952137927379 0.054838294811098628467 -0.02320469448552412578 0.097594752858986763555 0.13000315532529632678 0.29827442610413568147 0.035390811390033513617 -0.24126011933470334347 0.11400697624468097979 -0.1987365617234469195 0.36371617914560400164 -0.14884356038598234306 -0.045383505428977129192 0.1863851079529897925 -0.072230324939144163743 -0.2429708369650954991 -0.029614476433992811127 0.19682958465637695467 0.36644030122276138872 0.032409137229619855436 -0.10159314057737720005 0.37975463366615946903 -0.042427106140217836494 -0.42621381816584286151 0.051259461416374954568 -0.37415507978064055372 0.13289443505602765994 -0.25546225733725047569 0.034311213945143845261 -0.34868849120912109862 -0.22642036612323063194 0.045465190402156373251 -0.35187003838021013724 0.28109976720784912718 -0.064461529067571174401 0.24872732457511903537 0.026834812111202317741 -0.080548205094935765302 -0.035253480992035235442 -0.11562509808184391613 -0.31428013129742654597 0.15131657734669198834 0.056299306935895618298 0.22426758332122301298 0.25915773587308438275 0.04554611240047765075 0.05152950941481380942 -0.024916268099034341588 0.14238177919999364662 0.055733187503138020835 -0.41826585920674802521 -0.014349044738827964121 0.020335496680490505739 -0.20721362194795767131;-0.34525479879534576311 0.21357126318864141923 0.23613701540405340751 -0.14318720549508659468 0.20244894596755116933 -0.20123354791756928317 0.25872731656548408896 0.81409317864816221899 -0.17726442289613628112 -0.26740794300797959826 0.41732533934978532919 0.42413192458613663272 0.45492059446806343281 -0.30043571528329121589 0.21492073361923386132 -0.16514427904290773785 0.34836849692876131757 -0.084583520528232702951 -0.22952120875342221784 0.35046333151202146983 0.16035568664127186622 -0.0025544459584765045676 -0.11281863199004840692 0.057745007115241227258 0.31727889270732184679 -0.18678137619900009314 0.0043577200808623452882 -0.061885978284973448826 0.25573596498872835925 -0.26821650646874628521 0.39602186310007297942 0.16804501883917136174 0.20424430743988625236 0.38186733753019630466 0.023593850891094159811 0.40375642300762032422 0.07843753149185224427 -0.11657858621572148028 0.30600543947199898565 0.28047824851302366467 -0.47277072742859616028 -0.45018091987003377996 -0.52183382393601385196 -0.10066954459359753193 -0.28451165321285498688 0.2566023103696100649 0.065022164785779976159 0.26751218229536627424 0.5496975099817231758 -0.30400959774771207922 0.10610874713533136049 0.19667944936207493178 -0.07263253178804229826 0.0027329864179431481545 0.34917890051020694653 -0.19341608608815466508 -0.079431071352765197924 -0.07501400866794806499 -0.25691359880039887909 -0.15602225136912417636 -0.042537380521244602671 -0.19228705659990491528 0.24010896723220798155 -0.11467811882511627641;-0.12373627773347296854 -0.21027430077037143064 -0.32257176255507813423 0.10173819617499528511 -0.21894388560853339509 -0.17504124549898777974 -0.28496368904978219838 0.29099019868865666494 -0.14464893678183193826 -0.13650789486603942535 0.38087472740029104656 -0.25007400976947502524 -0.092045844486995195832 -0.046621861823797884627 -0.045148730923897040235 -0.30022768516392023264 -0.010709897049743177799 -0.13990312474758792582 0.046019244990087790348 0.32038230561758201942 -0.23319234214787198933 -0.16316336047343144022 0.21715161593173734622 -0.13522888631222654277 -0.10996334574893575076 0.29853014374880859627 0.22797301932006824865 -0.27794543173040225925 0.1778175580375963849 0.099327806506212215631 -0.17894775475171204038 0.17230826627230741432 -0.066715745454237432299 0.090186032116902861699 0.10113157185558904749 0.010359000556362728609 -0.0069668631323510825729 0.23212831114594326132 0.079147920897793697104 0.18104696289011593113 0.28496878872879261024 -0.16240802097666834358 -0.072270310796242534512 -0.08899425601071019043 0.33748923728984958625 -0.13783400503905313128 -0.28672239566213586492 -0.079394680971952624748 -0.10005979522551536331 -0.13982392551974764938 -0.18395029653802658087 -0.12996882998419298505 -0.037934285064723273495 0.25587274720736519207 0.10310946149833767616 -0.058809371701226374751 -0.14543425656453348727 -0.14051496069220306695 -0.28680166594279782322 -0.12328362626457950446 0.19933794958209483106 -0.036731350912677644682 0.072096072522845403019 -0.28486511903464228901;-0.11289541075216301402 -0.059004795653820246715 0.0794453084297084694 0.094962419305836806571 -0.38077191139370375472 0.329834160321977099 -0.18407495842087309712 -0.02538585407425906354 -0.16890940943465754254 0.12001393020342342177 0.054086330395802219295 0.17375338482876270807 -0.52577409591409740575 0.40575888710431334827 0.10200491370019861004 -0.028060389880374136257 0.23306543976993435163 -0.14443421741178599782 0.211834232706190978 -0.18141786028424594646 -0.035444520352396223506 0.13736859811599341774 -0.25296752103804509559 -0.0033776606002891723136 -0.002059055237154847149 -0.07597636739160940067 0.055355619599931023267 0.2231726456660554081 0.21512533540543618549 0.33453444860212544487 -0.018339372541870478661 -0.098759857193167654987 -0.30160897861007440746 0.012823831053577783648 -0.0422126327718936184 0.12812556796139398796 -0.036204874940944653527 0.11990475989071526508 -0.17274970110983045579 -0.29578942469579461161 0.043609895845570866013 0.21739822744562567469 0.16351622420228240085 0.18475643498415117438 0.065860723017875197338 -0.041686633303291045771 -0.16977183937325232566 0.37352425934419142273 -0.23675099362280391246 0.08835406168890434786 -0.14270228730646780657 0.12708428311309269421 0.19958673302825916118 0.19776612809217888889 0.24057368879372645343 0.20357073989803467495 0.058437403227474073175 0.30914623287355480485 0.13972546136092747759 -0.13446700931737068374 -0.043375751718368091292 0.084935621478346837177 -0.17892829197604295799 0.025191476935850456997;0.50124115568474725269 -0.091599866947052396848 -0.11527659720880142902 0.11655057769783262744 0.11239689212863569756 0.19568540060853012452 -0.096406507654726636414 -0.064587881763393834023 -0.28503605718152846826 0.27734872820552414208 0.25063388424604432503 0.098916727415582467176 -0.14727905247588185533 0.16717172642795638526 0.18910096092952091706 0.20802618171037953743 0.068490050294457205382 0.09842475763844094061 -0.39790513107428149286 0.1798262254473649846 0.31559037619650054385 0.097684515320466652755 -0.098926908841105470893 0.22204581340559922942 -0.14361106115392180405 0.052964995008937677812 -0.26243502067038432246 0.14271893047416442379 0.48983788963771379699 -0.28544672045670976823 -0.19378056143776542508 0.020746770346060604967 -0.374991585530497884 -0.054729940605383636809 0.13746585169686229011 0.38043718160954637098 -0.26115813111430075111 -0.14488516434386716769 -0.051884501772447653989 0.33389141243845094076 0.092747550428963723701 -0.069422979010219348917 -0.28499355374057439017 -0.22201467695293386484 -0.035056452497400934776 0.08298071927457989494 0.29910214059388562369 -0.33864559232069563199 0.10991180242127857047 0.21195795812176423945 -0.049320282814053560683 -0.06636007523734510638 0.03991666220863622494 0.086973588605725724032 0.44037944825658786874 -0.22460563572825650858 -0.21986528292176352184 0.20836659581013816656 7.6770471341045646327e-05 -0.21777176334888745379 0.66160070205617738104 -0.23438883362548226796 0.51554915635096942861 -0.19236296927454385464;-0.22524684607160994076 0.14702009940483282135 0.039340579329805135111 0.25210259563124570725 -0.25808166303137075603 0.10239947472248346616 -0.070353534028177719395 0.25851381561369568551 -0.23688851513714156982 0.14063111755573171058 0.37270078158539154956 -0.32648618907502485742 0.11568747158813645626 -0.042426768702365405539 0.14769812239135066134 -0.13938802259241486747 -0.099172589273058053827 0.36030436273136046132 -0.051614055567072769648 0.084982759983514191693 -0.044058353849404062463 -0.2366253784965567375 -0.2182038321729146968 -0.082766033776062869487 -0.087703056422045705398 -0.10649217697599154542 0.0099492205058972320308 -0.021033935466400650871 -0.2550281448525245076 -0.0041645497364779784574 -0.16621260580674770968 -0.087916676965017523382 0.18555084825777437563 0.23407156056289837864 0.013525250947903869059 -0.29396597930035450741 -0.17342372442127138021 0.15717829515249603922 0.23255430102245136514 0.25496450099203266104 -0.1169073018706348055 -0.30699435229255223057 -0.26252054980717781651 0.058902184322478144674 0.081460457011920769932 -0.10236179236264980608 -0.27719806096971244536 0.22469162724969846123 -0.075145206832784083861 0.22441766091390319415 -0.24010816112094929276 -0.2498692630432159667 -0.012763894149153338572 -0.28019413227772110853 0.21505745046430235767 0.20604763942660808684 -0.24332356355476131293 -0.073349089658407862213 -0.093729010444317542583 -0.17539063780381389246 -0.067950458134930488696 -0.032325569033964128562 -0.23668121805732822427 0.11171091236487333542;0.27370615797125119606 0.010293658992197614668 0.3896472455601938667 0.0089571124539208762938 0.053293201868986929404 -0.17003875312997945857 -0.011350891432807678691 0.31486987683905398594 -0.24685345575038145083 0.10691104190592382039 0.42150924392544142361 -0.29271183858417337831 -0.0019662093729651774175 0.06849183712060906426 -0.085641155714088076922 -0.27635018902607200175 0.31588159290194278705 0.15987663680831984414 -0.17202968116652631037 -0.010102925265227720442 -0.084554317442224691259 0.096626221970600348343 -0.095308965175911752876 0.17410356810232766045 -0.27331831067589795747 -0.20092542366219043326 0.16532875696937057719 0.008933119452083356643 -0.019167458228290346761 -0.11869980616301457899 -0.10933502178886771172 0.11964315184129016567 -0.18050675820399045279 0.24551382112203889996 0.094896492307087576545 -0.17455550060133376289 -0.17233348181167909563 -0.10091611904097121111 -0.13789406572454421251 -0.18978909409844058054 0.16980468880117388641 -0.34026902746896242613 -0.067782895235679541113 -0.12883933383270876338 0.19580136608185835789 0.17041460320852352961 -0.18417564648825257567 -0.065576196051334106896 -0.17171944302846431363 0.26775214265924718315 0.066424826343211521018 -0.091480439665381371728 -0.11445967026451596416 -0.20181493898014080113 -0.029848541547708735272 -0.20904487768260349156 -0.050493224084028676124 0.25004068286101749363 -0.20078077749272232877 -0.19658160957755418941 0.19214201502084990447 -0.14906689117387150745 -0.14005746704142740811 -0.34770752958402062482;0.2251530932247637895 0.17071746080968552839 0.12823610917915717611 0.48570922180522674294 0.11308888375148935801 -0.070748996925523416346 -0.16545247578723207282 -0.77104382561678164176 0.11223553996880958339 0.0027301344220240632114 -0.10289842208818364422 0.021567282901350078028 -0.12815458511333782665 0.12742091485891307578 -0.015639030923026858017 -0.062717418204778760393 0.24490406828362873415 0.41760459201774891014 -0.053282311323913318646 -0.29204047515347453245 -0.1065368647667443297 0.049501271124901401188 -0.31819815412773877483 0.055003318718950831856 0.082268762599431291549 0.27323844901709071209 -0.064696659444617887758 0.083146341925300959463 -0.00068956782731280309631 -0.080910915820611273297 0.093123977748579819802 -0.06381504402770092621 0.072053947086676617406 0.11810028407758849101 0.48289140133288027679 0.12083425066139390214 -0.076154057421992757404 -0.39255378308243032981 -0.25391304221003474506 -0.39451952565527981243 0.37441963239093062343 0.35587092851086371548 0.24007784768369058725 -0.41747051532652823536 0.049350708563598313927 0.29849143508579295547 -0.032730602620427193261 -0.049153151603984306106 -0.14786499091451188459 0.24296682672234892753 -0.18108991766592036354 -0.011379138912936669417 -0.025987616804687963673 0.34050297281004843208 0.7455869615534685968 -0.19977956776405872419 0.38444597892065535127 0.095568974854672944508 -0.48982045175329763653 0.40013026671940260526 0.10560962773979422347 -0.10628542700983641123 -0.038904775226438335911 0.31004230966827422966;0.043895388501305289408 0.13825248449868163259 0.066384811707346877419 0.16199018889409005917 0.26576282242768939357 0.12459390971417542981 0.46217114978199302922 0.11660154196678891581 0.13241488868171807924 0.18397576343179292135 0.014479239489832731319 -0.017872528230415230671 -0.1506322194332611053 0.21224612906433462656 0.038189800971779194749 0.0052210025761781917245 -0.014817224318208362804 -0.50571520312650175555 -0.24705015158937243536 -0.17778363365144231323 -0.016391019811793920008 0.29357484844256154233 -0.20365685947936118527 0.016962725606779433668 -0.46472469653245718213 -0.064282915951208385863 0.031538071488763134986 0.09657605564819427002 0.32917396834569379038 0.2529768896074848783 -0.19210883730921599066 0.16476072305545452767 0.029645736509265146336 -0.13747896647667912085 0.096657293600853150251 0.055223384691541727021 0.15584530342993477281 0.13299465810222871331 -0.18936869911687115309 -0.13880415020910241708 0.12007524059168518671 0.048671870068718987856 -0.22168569448346334139 -0.1357752082087873291 0.34490196193767708177 0.21194339413339469136 0.22579332320338199591 -0.18440523679727605089 -0.19128046301503437432 -0.13780315376622187529 -0.001388080766367245358 -0.099849810459344615077 -0.20274598282126590765 0.37492533561370211537 0.12375031469135287787 -0.18365934169583886248 0.3408397344089987846 -0.18161751197167691485 -0.24456441176793866643 -0.0081742267129408761883 -0.29200140001684182778 0.10508993856454169891 0.068956975148731530778 0.094922606564884590141;0.4958015394137826326 0.11268675238391256954 0.30211620231581337581 0.63592279788513716987 -0.44295695681933089372 0.33932979352615211255 0.39927571840156561578 -0.14991074099665091524 0.59245395589791061131 -0.18844570497443113855 0.090937390586256841574 0.15068263537593182266 -0.38630331161446779253 0.18221002452421811157 -0.26212124537439723815 0.13747603155226423288 -0.28220105454875243911 0.055795708407717511945 -0.036378222559398071256 -0.023435333293785835101 0.67448060157553502147 -0.7938518667993180733 0.21051509024814757387 0.33627129359810686848 0.18441175480684737775 -0.064097603083037801852 -0.46383617742752342172 -0.28034144923205106537 -0.13892278091719692523 -0.14415584394910593846 0.20510497063338575807 0.15075936051786748004 0.0053541855758535948639 0.31895403036932817864 -0.14042968580579928695 0.17000649512712390221 0.13630254163120472666 -0.2345441048348107238 -0.089379033392307030703 -0.18822028657018499698 -0.074583614744958531828 0.017748078893814387552 0.026079639672205605361 0.31955022135246152759 -0.020851618352587513588 0.26448503021466457374 0.15191416537984306356 -0.3189872198409861026 0.031716182294466252478 0.17800051894791230067 -0.21364641232748435296 0.0055663605759093256684 0.2243950273238722315 -0.1663581826806919961 0.68182878111764144702 -0.01703959098254928875 -0.16889460595213437455 0.20479914283691541543 -0.35885975772428646557 0.061316974031721399596 -0.42068297494230627587 -0.13108747381932253639 -0.65480819993686278924 0.022604780926353314902;-0.20914674727230267437 -0.26950154547342930478 -0.037373043400246899748 -0.1065860421977735395 -0.073304198522051597364 -0.0012956991652063264663 -0.084062563277044560772 0.20104086908868487593 -0.25468200806447932605 0.22144312974514324122 0.051323246682775651439 -0.16270558227850009936 -0.31042744539145944449 -0.095840078277729306988 0.12710189617344069823 0.40658644786466496823 0.30190181703422080961 -0.36607776585410500836 0.13451327768004386898 0.09892337249924290643 0.14545899327128555822 -0.061140845304760528534 -0.38924509100221676983 -0.15518215626308320965 -0.0305470846437818494 -0.21689172647782678505 -0.21083704910516978814 0.2657420140145519416 0.16050370835545579862 -0.12015673376274009498 0.023387578984918510477 -0.058128799501147104811 0.17520055791912345078 -0.17364184865636925204 -0.10969387323599820439 0.025773533458730801121 -0.11434670113544664893 0.12707759139183918973 -0.22565278244046477196 0.025377624849148162911 0.039982303878694933075 0.13614734586014684559 -0.21326240793269973794 -0.24702972214589521971 -0.17472102690951241133 -0.28917911221795239429 0.0046672136050677501609 0.18754331847571970027 -0.060669385609997031339 -0.15033677522556715411 -0.37413768463148883159 0.14592572172561718569 0.34651762250912593322 -0.35202725909131232784 0.43811291343229485928 0.038669782126684419665 -0.032369970307655177022 0.25001647684721090004 0.084770895288636793907 -0.27080364591811278974 0.34676375914109069942 -0.17975833101899796329 0.13715486289421335853 -0.17331663019661344705;-0.023307407280255439119 0.27798883816388642032 -0.036944145522727289688 -0.2809937342315290687 0.200464339486275539 -0.18396103238288680215 -0.022854020592157003183 -0.015419684046037033034 -0.095362258167674754383 0.07648593857898861037 0.093824110059901960623 0.1204626092112222463 -0.13139221594744679433 0.30145550611093874238 0.25682292975489950937 0.15506219641062612968 -0.20336890782472907824 0.040566150438828031677 -0.17711660942649828931 -0.16356529096755009767 0.2426428888742351575 -0.18322949912568978204 0.00014593469992934808457 -0.29040710493600424558 -0.036786970717304981471 0.071583495496903112865 -0.047648311846760431354 -0.16713667411516566763 0.037375592985976056892 0.34663182972615957933 -0.17796608370698654977 -0.023820322898263517064 -0.36917081000161705573 -0.20585492300417035372 -0.32497415205937740801 0.37855081069839574548 -0.013370572139166052653 -3.5357404763182342564e-05 0.32153208575192787633 0.24396506775660706245 0.10783604206026219108 0.17764663713519596167 0.084993149031003412119 -0.070608369446188076757 0.012769876763409831327 0.14210019722047148583 0.035533792427863905572 -0.33124966742086975335 -0.080600720938205291932 0.24210388771989330148 0.026154299320641206938 -0.16046807131731558038 -0.035635677869661631922 0.17551133878688621182 0.26290897838924837115 -0.04744561900864391335 -0.22428216729713576494 -0.25730795719723514869 -0.0061552561899075822899 0.16937824797085199169 0.32564945482993939985 -0.033922781055564538155 0.17371785739999889842 0.31606657003295290931;0.22774618250761802241 0.010157374800357632863 0.017710792575738636828 -0.14798526334237266378 0.24736336146839593697 -0.18513416645432054231 0.26602490378501059132 -0.28652353912762013044 0.049254578140045142398 0.25913008824447181233 -0.19180285923058618125 -0.15130219650134996145 0.022500508205125110267 -0.1410496967857640116 0.12562359140596418561 -0.16442277407427471903 -0.01083832658911286842 -0.064872442907068297857 -0.27264365636508086643 -0.27072778096777516676 -0.34206148361563043503 -0.20115488600726208479 0.27875850872280594217 0.31230444394464912383 0.017568647784045633709 0.15016479495360082752 -0.20390811954128498784 0.16183681049135409391 0.021412712371540749967 0.015361423907920678661 0.1655514627048028653 -0.14830472947714473664 -0.24241893405822340091 0.083297249999489342276 -0.046311223152569587491 0.29401675710762109617 0.23035909915663912995 -0.16315162994104132066 0.040646217186852941217 0.25554162544799630119 0.047991852505738577528 0.096540025385393468671 0.015277283739001317614 -0.33483862340332104512 0.28048250545864639172 -0.15264814824903250035 0.064891345709569933642 -0.2991130812393562044 -0.19814295842917731272 -0.19031226334769879571 0.19704768638317476936 0.34409392522551979221 0.084321903173842790991 -0.18921218858337918167 0.012882065689779941334 0.1728983822660992431 -0.30161537946946420652 -0.022720063634270901837 -0.050708729470880266332 0.020812389366549784164 0.33296805620408959081 0.20095594567019101073 0.2916836586458613767 -0.19767724264914374177;-0.3396592495758642416 0.19912120288809090352 -0.095576740571039112138 0.16698114795762622475 -0.23238830256525230822 0.077506436997009264811 -0.2314874398362132546 0.1208194473633605881 -0.12420771913759827421 -0.24852708055865163628 -0.074090962634090387628 0.3041118696939176802 0.10311581274215381177 0.014196556254568866787 -0.325738252643243964 0.00054261594025868903172 0.036960600466378862317 -0.17782669236562473336 -0.13438309357044211922 0.2301389282126974356 -0.26027812184420595631 -0.219920479083575926 0.0088156542607643901405 -0.19474667391359914981 0.13349958425477706503 0.28338848796238669259 -0.25618313029388301016 0.098518326142202461426 -0.13760153508624722862 0.30574152874011151226 -0.035537276632407278909 0.13978886335598453283 0.35835963227869238601 0.082998578165436057152 0.038501819997794520245 0.12629769977252802704 0.1106222991004426337 0.090283807381886349575 0.023659292796141602466 -0.060815051359980665246 0.21525163102562555606 -0.011189448806192662383 0.17102802299288380472 0.28256350743802066683 -0.18112312057497090279 -0.10314067922244450626 -0.34782958801302593654 -0.081266149560964090481 -0.011145646549896316355 0.1878734061401118316 0.062389007119602435392 -0.37173602460991123086 0.24705253174399299798 -0.25839244859264731691 0.28231916457326955427 -0.14761191619828370469 -0.18905270787286165834 0.35430858870845793884 -0.096693943906028936852 -0.088292686050396279596 0.066925504244842698442 -0.057628009777723879226 0.16110693011523408158 -0.085976969496228766721;0.14495600215347761996 -0.17366294102633800245 0.053925778446092212381 -0.020636885436174829539 0.0606891169778062331 -0.10957575293794646898 -0.023214652678092567023 0.10828909724186787378 -0.30399459701775077836 0.21060761660255594707 -0.12716950886334077442 -0.39244063424831382436 0.071848628476420914324 -0.44828586589822722042 0.023401674319397682694 0.27777403166589093031 0.51382393713417084946 -0.014490289639792014453 0.074787433798833860554 0.30071125587785074718 -0.30705552978788203111 -0.23510282568555807003 -0.029049018889493915391 0.25015278660407391786 -0.10958380210585128012 0.11618243062413996514 -0.02375287868853451223 0.18049382798584187593 -0.0054987191781882306663 0.16318836325620281191 -0.0081547839728375055152 0.17206975184759512598 0.40939324168789570368 -0.33826623987531984072 -0.33219938368302398546 -0.29272991209136867141 -1.0977833178322897734 -0.15020832278325804698 0.047448169707573734089 -0.09706901269825171652 0.27253844796306464504 0.068015438004681461059 0.048849905523967548926 -0.22452361581228941212 -0.061094677830376462047 -0.11987701751713357445 -0.010942511133338331947 -0.010349608142168193609 -0.0065003162680894073511 0.1457247863356859463 0.1331474772592733391 0.074414793291071895665 -0.28991437272044345841 0.31066006040192517546 0.14901564454112689595 -0.33940507725617097279 -0.022141779067384348423 0.14684757965541758717 0.33018654126103597068 -0.14460676363111973908 -0.23404159823281375785 0.24579155327564630729 0.53931490486839994691 0.22354307506947621031;0.22149087364683764378 0.17200632513206376428 -0.013129143786381920755 0.27846948882936295444 0.22582872462154635063 -0.21044588942562689193 0.1580449842809312222 0.23773171578729224152 -0.14296660999294291683 0.3302586547046492127 0.16361315620053235032 -0.19940433602295531967 0.16439902181793344949 0.12521124782961182142 0.048179216396318856608 -0.34750691816593209937 0.11304831477241798765 0.32045903207438614091 0.17375914251118573794 -0.1895714928491715745 0.24529371133105995484 -0.07329412486175640451 0.12863624057194245065 -0.14874446801205468138 0.27012994933372447282 0.19542642149982103472 -0.10983681674155297558 -0.09104522257450504974 -0.021504970669731445637 0.17552992455629562452 0.28886554868848851596 -0.27592758072787998413 0.29788495997355102229 -0.2480669779962184629 0.18061629154746758341 -0.093530908998079420602 -0.015575686029639783728 0.31515836548077957868 0.10875670167904766261 0.14456773831699781807 0.29219626194631354021 -0.30264984581084009019 -0.38620118341154086039 0.0015888180605955536193 0.051203538342313378862 0.067005581094097058092 -0.16976861431909076594 0.30428229785019106357 0.28793875409515490293 -0.080224013766970983519 -0.099979015283352956622 -0.5554412140365062589 0.2636200401831116924 -0.18502031744511707179 0.33995971480747022575 -0.17108302929618771082 0.45709082888059049399 0.13799944646646167268 -0.20670973289079988544 0.019003373626191737839 -0.23739079300489057678 -0.25091784403265759984 -0.095269712586801613696 0.059880265713032794495;-0.20997243077974259151 -0.31038910087788834646 -0.18172470306110238836 0.17409167191866148361 0.31842316850506224846 0.15069743059297652232 0.16655542533069850331 -0.01924688116986533748 0.20791118273331840594 0.21939808957237147413 -0.30811457067768516227 0.22947159191686325452 -0.29951147530412136621 -0.017903686174339572545 0.12971209699332048038 -0.24564867503764889478 -0.030822422328741591602 -0.30075687610785262205 0.16978623142917606548 0.022488811016601509274 0.16878861197502656455 0.16819647521345471031 0.14266090513803461604 0.12969969654093516098 0.031349048414899771675 -0.10361371088286000508 -0.1282000280736907416 -0.16536295180124621629 0.21514972601845347433 0.061593529138804309353 0.11906025624488422721 -0.16336010226611899498 0.0081696238191685064539 0.018682500149952447482 -0.22518528164486034671 0.3023757849415856791 -0.17812195931040950003 0.12420499093577092031 0.17352281261573274107 0.033332152530869539608 -0.1608912840111877407 -0.26826163519686258008 0.25814831436903329376 -0.3140625805235577328 0.32233366381432421166 -0.19893630349709770511 0.10040473435182542539 -0.22588392684290731216 0.27596980175980229122 -0.36050787144836549114 -0.11813040388860793217 -0.10910782639685326356 -0.24241321678454358368 -0.0031885902087491519059 -0.081536211227474578167 -0.10859171142908916052 -0.085408529962700291405 0.094582066887572341374 0.16933983007485808869 0.25227186981750349126 -0.17562448358376850366 0.20064126495918069293 0.1094630977804969818 -0.14315914056654133191;0.021123576103029076401 0.36023214713642359719 -0.062120000724601130704 0.08985603141698855767 0.16411433030623365226 0.42664277897615049406 -0.076432553769120531451 0.26089250460014729027 -0.24106205988381398941 -0.1190552493734713807 0.11566221190436704047 0.53928284220611955035 0.26050668527458947787 0.19262222209414700536 -0.18710457454254841858 0.22787249503603770884 -0.15057483587380707246 -0.41629476698718786976 0.29824909497149360016 -0.18320530522136685425 0.10442176125571941969 -0.21430737027318866317 -0.63219033460790219348 -0.12107868365129700883 -0.19149068419572881639 -0.074261105445834418859 0.10957693046467835429 -0.17680820935561550322 0.24280486323052474784 -0.032288299238538223368 -0.13264754715835042065 -0.13315379986967354475 -0.31942721332158818814 -0.12140958184297101496 -0.32538861838084814915 0.41341097034938767418 0.24283242469816082587 0.16083764536012262747 0.41337867880743950355 0.29449833578455258953 0.044726538017738841357 0.057706063562361589736 0.13776900944863834653 -0.14256361887135074462 0.25259882145959605682 -0.33000599531005686549 -0.27614126807425587451 -0.21726948070581342254 -0.19779601177690595004 -0.074880398756456106879 0.061512023030032343673 0.24163492990800941596 -0.1354505071544089001 0.16215900047308670628 -0.16799566129552581661 -0.054671904225880148254 0.076670505552610679345 -0.40213617382928262822 0.034048462884527556926 0.043491965532619879242 0.72137930654838344768 0.27678903451153297199 0.22380517530550195215 -0.2615538726333254127;-0.20563583490281675537 0.018731397165238746622 -0.010227414719923914529 0.17433303499341487597 0.20387521814371126205 -0.0039300858950035485323 -0.32273985564154139549 -0.033355670973851114791 0.084172988523822045437 -0.1763883653312287858 0.22092170533096103235 -0.20329801577150824476 0.12267124570558958496 -0.011228498008643915396 -0.16136292424087941844 -0.065729259199075212861 0.34619722507364592001 0.1485220370562937986 0.31819190373382061354 0.14886131629557730616 0.2893875967710792807 0.0015168977899341405755 0.29192290292453537681 0.29870084548151537573 0.18381596011153852888 -0.28635096809436644261 0.21033231967505816584 0.077207488026765414002 0.11534344190318764067 -0.041851948715509387777 -0.13080313771917945198 -0.24813035110874726019 -0.072315167214227010772 -0.16451178727911824895 0.20960638337835799105 0.24315966667751040542 0.010565675330464686932 -0.12599654996037171206 -0.33065802848608472075 0.21910204444271433322 0.00062315402846651766697 -0.26557548941591307967 -0.21704868281557923582 -0.19904486270592061659 0.025766225000240380871 0.14388929041183542989 -0.33860814203918537801 0.080823482062154491934 0.10642029240631564746 0.23291830075562142133 0.07121448185632417438 -0.24518556559191284627 0.29998862181994151443 -0.11158933787598426801 0.15140230517368111207 0.24463581054806290971 -0.020381917276658462895 0.27820524809078361894 0.059988943364535467218 0.0017151426514408543971 -0.026752034698844146671 -0.23288598956696152098 0.052060719700206030403 -0.31510777019056257497;0.0019872285922511632138 -0.11776563636555836823 -0.14362445927581765637 -0.4513908303648872522 -0.012048074582585876005 -0.0010099076016961007051 0.0070593655521701227304 -0.18824418595329284187 -0.060143734291924953739 0.43278781064090088293 0.098835397823013149132 0.18034985041889298185 -0.18006378390231092546 0.41156661635925634313 0.083884625001812401779 0.26587464677832423066 0.0271992113542521112 -0.078261662993213715334 -0.24802693946242695966 -0.35720651314460061254 -0.17966494369734384295 -0.037177848216040566831 -0.3462823953294857926 -0.14683688859148447126 -0.12065422012473100977 -0.11898228127591924108 -0.056157308829968499708 -0.19898132136008800375 0.11500029713801369902 0.15532372453860732175 0.041328885214363390854 -0.22404506269833227017 0.23846905072863730513 0.011817838178053031301 -0.059492946622748239804 0.00067247325831850605481 -0.010818415604103001626 -0.17495798544497637161 -0.21233451779539386228 0.19983268791167091427 -0.16479705658801127588 0.32395821303731930918 0.17202963769226034541 0.025267354425820939823 0.082298979110896036682 -0.22566455603517707185 0.33377794989547410198 -0.3883510772936609734 0.20310834525369320103 0.26791864968171485994 0.37393827025129933173 0.048246493128387954452 0.094840753887079257134 0.14513593210596009708 0.11830016335528885374 -0.2163891602308816442 -0.14951790308419782294 0.056471112815598564771 0.054002603054984277264 0.12572692881122488062 0.10779773818255204698 0.30546936976135091735 0.48668444300054791718 -0.071093904670683077951;0.015165672644410656614 0.092852760149247107191 -0.0020638375713483854933 0.31004341426324133479 0.14215720700241110674 -0.0092828385717569524005 0.079082378531939709343 -0.57055667096027196106 0.16396560646701857644 0.32144792680151657027 -0.063107472626195579291 0.053756176457392619572 0.52714646161193345897 0.59480757226886582512 0.10425667637420509004 0.059644835375426231983 0.41787889535780575745 0.30855927336447458442 0.17283747665268839322 -0.14817401935426222082 0.13432249618539515712 0.015175885522954846163 0.20301077660390023927 0.015137199592180027724 -0.18718269828746494921 -0.16973781422407016595 0.42148364644982466709 -0.29832888439589599905 -0.021163116673291081787 -0.14388818842036465995 -0.050052562716625725869 0.22052461724224692308 -0.034458449203502855562 0.12214211637280367184 -0.39268575843601050135 -0.17989177344699516792 -0.16484162548631950407 -0.27076875967742081164 -0.22429628912813723285 0.28816184278383633055 0.077696630690715182133 -0.09529766431190829501 0.078182546168598932024 0.044222579755220356446 0.12146139612937431607 0.10558883804979102283 -0.30119842539056695951 0.03767843151570655913 -0.36231248447138320046 -0.20139463657724257506 -0.22333119375913362825 -0.0013729331617914773602 -0.045691265927599394869 -0.28284322272895184858 0.33948164442868328239 -0.25220277787953288007 0.33150232208397967248 -0.04815086364414604414 -0.46652837858744788946 0.31860567430140407374 0.043502965293165545002 0.022818159227895165597 -0.026659037263714657762 0.36116775632976011456;-0.060819007393839760733 -0.0262626951009403177 -0.11487415408570410269 0.19836964542740101458 0.1429403685872509544 0.066838637367224187913 -0.073923133648211486468 0.22192112125501434194 0.11082072413771917874 -0.057062521152194997653 -0.17948921805133469243 0.32012668978999775371 0.07110051578312120979 0.054063742621913525588 0.2071362038111970727 0.29577513462659893451 0.02560399998079685227 -0.092203070760021557661 0.27389674726276813654 0.24385137288712943615 0.24262865875228536994 0.33934186105815966616 -0.16519847340585638862 -0.19692793404933231494 -0.11893242030861639336 -0.017058299452375549204 -0.25660579004910849532 0.091822640656398821224 0.074661540086487676593 -0.24877043253517167054 -0.22405495162917848928 -0.0020669691743743666065 -0.15720271343672528874 -5.2250391526241199739e-05 0.27143894552641856244 0.17248427553583051131 -0.018078257819505842013 -0.16359168781698818496 -0.12043510627957831893 -0.067424752724995415387 -0.32538487873612159662 -0.11159316326311204126 0.28340663622733813787 -0.086736012463065531586 -0.013660642076772647885 -0.29579089898362792566 0.38094817883634296551 0.060777668443963012157 0.15732694808822339505 0.1748467309271299619 -0.063640759123699736088 0.29500126880391919215 0.081318983772541361676 0.21501654605179593149 -0.080817362382454224767 -0.052020692991672272398 -0.066884462757555912527 -0.38000101463761049025 0.21941240127829164663 -0.2940737052511745997 0.10165764507745807255 -0.099246348882878088205 -0.22279246914570430271 0.062884193556977274753;0.2170188748801239742 0.10968333867340300525 0.076782335071171062268 0.45242344634362363642 -0.19128848219919361573 0.16839239262658661778 0.16056340933935428494 0.22180758993988186623 0.19742060371122047147 -0.25663004600849148584 -0.14223320638697206642 -0.37949279888954517981 0.4137342352995093675 -0.058787215196126639538 0.13978354260821007626 0.030222740671999096668 0.15254550341275086023 -0.22646352413526726899 0.17131737280348455221 0.22228976131382641168 0.23576993037798593678 -0.43126863279533100837 -0.021865467705425058187 0.014764992379600636735 0.05692966615290053628 0.17063800910252666099 0.59714143148243981063 0.36969213985756799179 0.022941061407011922868 0.39471450929472773339 -0.10166087761522263344 0.56160315180925979295 -0.1668218473383756284 0.043839301558814998405 -0.46281208244881494318 -0.11554558585733844256 -0.55658320464635502312 -0.51138474245491249981 -0.079263510462354372366 -0.27276864185560140141 -0.19472216166129951986 -0.18527002369942977 -0.35186240053274658868 -0.30979989609085489821 0.31069650590587388761 0.1284737123340721765 -0.47142521940734966046 0.0036972978234380187226 0.26783362982372671546 -0.0040826769884220528994 0.31441458526640864157 0.19386162916689070324 0.085751891951228356725 0.21387065900826865428 -0.24123348807688876905 -0.25105556737397549671 -0.025322589431128080667 -0.1536603097384767469 0.13281536639012458956 0.27601496009145848332 -0.064462910103228104886 -0.29478202238814377178 -0.053737076706781947144 -0.12162572779763178299;0.17766231001986290683 0.17023389677441821966 -0.08053897343254638741 -0.051867829693056199947 0.31674190016808517756 -0.13823936761578869969 0.43472552230621641645 -0.1466911575755868169 -0.096393352973106805059 0.2436584658829233363 -0.011579560211593639338 0.34811375050135345832 -0.045618506130240162044 0.13432875837106242334 -0.19330622200485950146 0.16730739154223461806 0.1052117699281183566 0.1853993954056978033 -0.47645095791061153889 -0.1164207069438206732 -0.14764010663050269878 -0.0031395189257646489642 -0.078666570104581612366 -0.30687753758237884538 0.22333105693833965599 -0.19161145452906336306 -0.09570990597668359301 0.15480854837596993989 0.077698568873075996022 -0.12096128979831408112 0.053005006872085258518 0.0057534267169979660603 -0.21124450892885215936 0.079710355576667377142 -0.20887019258951358691 0.076337147218911619029 0.28001544193307109643 -0.14228646600764904839 -0.018373711092613147222 0.20271499447262378291 -0.39876820221054048998 0.10869811435379125863 0.25099339393093778039 -0.041971277982495627801 -0.34181051906494824832 -0.54920947415789567181 -0.029406754877403296078 0.015705286660734913556 0.23824681326781863011 -0.28009401325901034374 0.18545571443177677473 -0.04474019329029255837 -0.03520348005588574275 -0.10408672155456416553 -0.1669161877263912741 -0.060432587519071864768 -0.28028401169719779906 -0.27469606459039636048 0.29149151487246460768 -0.26907276681309189037 0.15608711339075914681 -0.1019976683040532961 -0.15105032833273090986 0.20750450606966397427;-0.14077828795164662457 -0.13881429718364246551 0.11822719101609088788 -0.073276315250372286991 -0.055792845853274541934 0.089066700723163666487 -0.19297786799535826541 0.1357301464277975156 0.19722895655979705287 -0.16106116875086501361 0.071568148792011537784 0.22435404172177991766 -0.090277620968733332529 0.19521382812890875069 -0.078368876222634206719 -0.22014733948537770769 0.111510581989236357 0.21018508710582906041 0.032239057183652455874 -0.059859774791355048473 -0.23089848578066249352 -0.1962327948768846364 -0.15932139065818046175 -0.42184572676616666209 -0.057800300823973929654 0.30136904064044234275 0.20426731812960990942 0.23456029819445328721 0.22186222258977214561 -0.19148820976079378164 -0.084390914754165574641 0.048452173179819639504 0.023661205154931815031 0.32564366331881544614 0.49630760349404845488 -0.053795621662588236078 0.16805362471682674941 0.25949283477549001109 0.094222431689822500056 -0.21689898769538537571 0.05447154828955758088 0.08441646166890949543 -0.19942131025802914412 0.38428381848313036828 0.30113515973524568325 -0.02318711964004124132 0.18998996455382613502 0.21091620833288676762 0.10466691403501937607 -0.33841306905949225525 0.053934155879852424542 -0.01884426870743344945 -0.20656065325926101228 0.29718888728734715876 0.028460801868389905972 -0.17006114737848196383 0.0017347725583245470621 -0.094562555825995667225 -0.041270974110822221392 -0.13252756770622423077 -0.24201506699420655133 0.26951513182156267012 0.16367496953247040459 -0.16499860046251910162;-0.050365898939092990094 -0.58033767745015785167 0.14108808955291998743 0.041667299008316685538 0.069064510605466630788 -0.40753820593265654981 -0.22346255037110321351 -0.2914396732706047155 -0.22837107934199568637 0.20372785710851687435 0.24209690913826609204 -0.098669526609883914658 -0.054689019634633018185 0.043471155553520102188 0.15697567285763516787 -0.0045987549276996402339 -0.21302096191815733661 0.25179005866925424639 -0.039230677224066257125 0.2392117258842541283 0.12099930335161944439 -0.36081129291598834641 -0.1143302469714596592 -0.35718490872503849687 -0.27451530595923995248 0.10760934267694133304 0.23686589429886081848 0.020372940769436107683 0.22881967078440235142 -0.0872541489320482061 -0.32954266641285717698 0.021497498909288689783 -0.12002752248402516477 -0.24309944966928789811 -0.046303530587061131341 0.085110584112362483444 -0.37750035646617718932 -0.053224157049622244919 -0.077233631457414034238 0.13097666507305052996 -0.16911347731522885507 -0.17924983238243394346 0.22070827232287065778 -0.14766606692296188608 -0.27771161578524428126 0.1023806943267323577 0.30012097548574845352 -0.37131889207685758736 -0.15690660922978968972 0.15797347306397038769 0.0039450768646526294947 -0.11306024475780514227 -0.012572252362083093449 -0.19847708179195100442 -0.02580255911825437426 -0.17953565171361704489 -0.23634531512819445531 0.18933181270851356937 0.055735857192709091501 0.18270702205100883275 -0.25177250828084490886 -0.02236461712602759444 -0.20756894376875295594 0.27931998358795490089;-0.069349930899241962745 0.022331841982392960227 0.27556986516486248195 -0.1500352896803411884 0.3568672666442943564 0.16132130519835233273 0.12260313148730285493 0.22675719353586087923 0.094347811426801667101 0.35768891259103258173 0.084927560088761830381 -0.045118806740442912728 -0.15599539448093310834 -0.0052512175657981469135 -0.13615528216012282026 0.16822712046019361321 0.047160673986938621283 0.11317285139148684781 0.21173093451833935319 0.015592193240733144208 -0.028422692844850157984 0.32114496192478914072 -0.15129469704897960391 0.17785487366781166374 0.19766506277690901183 0.26993045778461183248 0.21751727075856500115 0.095031844459194575458 -0.16881987526227373864 -0.27786692796783457604 -0.11151987378782350635 0.42064534902126915483 0.044356374990640698441 0.13543735449672189564 -0.07601146345322606912 -0.17487408604829254855 -0.087878401229271208006 -0.088799604535696352592 -0.059103656725065283062 0.18742153796334981575 -0.026174469538986611106 0.12305900654975091002 -0.18716014620552937076 -0.19814997965202488239 -0.22085546268658767799 -0.30146536206825752524 0.026359468826024586019 -0.28926724722143432045 0.11987459465910738077 0.03871313919703384121 0.22375607566109453894 0.47428297162147797783 0.20050471647592429947 -0.22577395364035432457 -0.38216062958978513908 0.10548139284172024233 0.061658472821087342841 -0.19324847674786371776 0.066594574152785593335 0.090764190651116294362 -0.10171801332443362875 0.18523104833363954191 0.27812304707770957313 -0.21427195584713745746;0.30250780809336130783 -0.16464031437990381268 -0.10571187705762678799 0.20554861744383268185 -0.078108071128951697681 -0.35672737638962853657 0.032611410074042980478 -0.047939028306221362352 -0.16689542678158295064 -0.036058908807387927975 -0.20945086713152566427 -0.40567590240849593641 -0.14327122894121877006 -0.18915450103943648452 -0.25636666981538952514 0.021587356036914227136 0.11926523355060401899 0.16817653566615062277 -0.30457073832379338851 -0.10548581211910956767 0.062400837085748284139 0.103788073514178944 0.014321078339959093101 -0.040725377401059172089 -0.14486801568597507117 0.24777031601417409679 0.28036551987348962145 -0.085781437510894856247 0.10486012331393755603 -0.33165392822219080804 -0.032088189045927535681 0.40424710715533074268 0.11028048278300969787 -0.074219688803598860005 -0.30363020826888303949 -0.4225298058765868392 0.29984248574600647075 -0.080404564362707153791 -0.37231790742641657221 -0.12050783338353669716 -0.0096985054750630839832 0.03512953850362400543 -0.18674122017624472658 0.2548365833528102864 -0.003256493588143852258 0.095657520434449958002 0.14646144968501575989 -0.29058217665656987938 -0.1200154372602516839 -0.32790826898476754803 0.14303498931191535593 -0.1460661164807519341 0.12185934686314386921 -0.27846224120311002803 -0.1423260145364555751 0.21944687512324861922 0.26437398520421717674 0.036177558121255004586 -0.26535680617929968683 -0.41170362837523982735 -0.27226658539382009305 0.068741071233147016395 0.28245943583110005859 -0.18976437555057645845;-0.1245207602386210477 -0.35126287021115476517 0.29242129760878965428 -0.21470150529830128727 0.20191692519059672994 -0.24865996055751296567 0.13751128753390753912 -0.10059294550378256039 -0.30910161701269767143 0.23165436683634230142 0.17831386765187295929 0.1461347956655016378 -0.072239491445211995169 -0.46111549145400815286 0.2587969105569969952 0.25887300352055692132 -0.50351320987206127366 -0.12948205541279819708 0.10007980639095344355 0.15664448887592186122 0.072031949173623613381 0.10370917402174294197 0.098950576106838522561 -0.0042664857215279012106 0.25032966513435728206 -0.10653422645653090606 0.21236563606002092919 -0.31299583146180032234 0.16687219671683017896 0.0035771014992018374846 0.12627926075314904741 -0.32032592653423336282 0.17567980190300400145 0.023506691107456196416 0.32131652819221423467 -0.11339541782764775424 -0.18366299524062135173 -0.22746788345939389364 0.02581835355327230519 -0.0063151318764191740826 0.085654315583456569483 0.22464900620016170496 0.1804600776182260502 -0.21124799494202731176 -0.1420672939242352828 -0.24954618759683028228 0.29557135495639436096 0.10263360135223885405 -0.12041120324897421068 0.26220512656294725495 -0.21377598482565474125 -0.080179552112329313673 0.14625145854502008547 0.083707817414045163074 -0.19858773526840178825 -0.28040636365288562626 -0.00017263145560709585455 -0.11437853897947081183 -0.062686288744846843657 0.15954422206070870138 0.22270181851506065662 0.18128118398928536048 0.1225143103627261143 -0.17464333675922807942;0.18587196585604728871 0.10586266015869656709 0.25769860632934166178 0.05102573341824815506 -0.20158349274989298405 -0.18199839688720886866 -0.23687271322046721256 -0.10944950929686583785 -0.01940355197169361251 0.31899935902199294535 0.16817302431891437142 -0.036821560689961625734 0.19851532740311006453 0.13886858186089656719 -0.15337620884684546874 0.16271162449015313944 0.17071387819751984716 -0.26572574949187222071 0.12491728137618768324 0.22044511394892754574 -0.031372725334639903205 0.20808843627772927176 -0.040096373551873065733 0.35369607904955907562 -0.026102348190102379194 -0.18133174245058628071 0.02632941984721885037 0.027679885261057007168 0.063398095858851061246 -0.21852203174678824782 -0.046737110629715791776 0.16628050647713218946 0.26103421229621298627 0.053145745547766617967 0.27171838322044616909 -0.072492563128751991153 0.11715852977798463241 0.030431409606401008811 0.034268084291122158369 -0.30764541069416068142 0.078549735333602363485 -0.19837697023300507326 -0.15483250786154489909 0.30391723119123864594 -0.040580587006744224532 0.2244324418484495709 -0.037616969848762393802 -0.070040847810772507986 0.05957367726915772238 0.15288262983062606004 -0.26104872247648108763 -0.027745604196697106619 0.107716293706634339 0.20725247875628186045 0.31408689371283105007 0.048847030448057361662 -0.25909721333353452621 0.28664062865975259431 0.016466161877790590207 0.16824226668684211239 -0.26814931798889690695 0.25040519563869578779 -0.051964054303402992807 -0.23913528544831866296;-0.40284674116249474807 -0.11543102251228173905 0.39460360176190661941 0.69724258004045358561 0.17777781211871085398 -0.68591287657102739672 -0.73351838309073758015 -0.44557917462292856436 0.16342988193858251633 0.16945442713003636137 0.087920212335881472998 -1.0256234184377919227 0.77777848264373405929 0.061753588714944761262 -0.10382199722961056587 0.24283402423977662465 0.15899490922455561392 0.78972695365348755114 0.22471113417089552677 -0.0061645260690589200742 0.25661729467539218241 -0.21522583649659776661 -0.066816588228569964714 0.17852629966265132211 -0.14495174358589860142 0.069489350601200705615 -0.20336689097970114815 0.19581623698706382419 -0.083423669320985202602 -0.38440197048074559172 0.59299101738415616047 -0.22345245525431162159 -0.26950658042848762985 0.42896971876813055902 -0.36483299260117296736 0.26623600588481971529 0.033429612928430801899 -0.060704965668034745196 -0.3200433312435457256 -0.044029955666459098806 -0.30130932598239401621 0.069725357183421390883 0.18350414637962814135 0.63868796300446872838 -0.13885988013293995569 -0.41219886322474175167 -0.21646912233834270101 -0.031222708778180285893 -0.14164779709478439451 0.073166629679919256701 0.21249988028526872741 0.095754256169687371192 0.052701518709514276473 -0.029834499939266890395 0.87770295940674825097 0.14745501749134012903 -0.56527420159176944292 -0.2282181564809594998 -0.27434342077766310508 -0.062081185135629900207 -0.87716690896613402906 -0.010946992473529232326 -1.1770751676388215845 0.043909173618319495558;-0.088175857136172583473 -0.21089886449611638941 -0.074535021947855828461 -0.3140943203088796265 -0.27992916634206915782 0.28132301050355951189 0.36757088035740359544 0.28127783275791107265 -0.31307481042064416732 -0.025300406646225102186 -0.28286817756342452768 0.31019720008631940233 -0.14505632294191361797 0.14949000827394079427 0.22229029196962205028 -0.097108385157322396619 0.096419744405534996146 -0.39207421077293796996 0.025869335665221617621 -0.14916592630303751599 -0.19037618722587817954 0.11336399900085777914 -0.26188728472657263335 -0.0039177515359529544586 0.078640752294819385448 0.32774384762774649849 -0.33471078955559924184 -0.087989942503400683793 0.11963944310786488179 0.40563265962597910841 0.27134709206533513814 0.18206357846641357812 -0.11611944606456506279 -0.024314195575321835563 -0.26045977627383892772 -0.33916841569106315202 -0.1515887758091513382 0.0037875493799027068129 0.10976258945439175407 0.15832408997030567033 0.28971559280820202709 0.18344632275785352493 0.14842523438345209263 0.42521839397279892481 0.32950051956647902207 0.15181541124065242587 0.20275614257233390281 0.16114473817462260374 -0.060716606728065190823 -0.1239348718237184982 -0.14280934020171179299 0.17826299545591919871 0.29172070594473331617 0.24895508153417630903 0.51288010409092443798 0.13409284376953101159 -0.17846243184672375137 0.15367844741303093858 0.27836652764230518375 -0.24362375072710509838 -0.70203838611456581553 -0.15887847738029323152 -0.62277204333018587601 -0.37251223182906767484;-0.11182494994645615638 0.29637437214977246924 -0.2878805803516826245 0.12813461893380448386 0.16617295820667682404 0.10438213469433767211 -0.25364920209696728559 0.0041067756107380842465 0.11448794605391611479 0.10074830385586519554 -0.088340360396232595064 -0.067548342424151142094 -0.11209465203614664419 0.1698109883579705659 -0.44000523676272618179 0.23109782616204399552 -0.17107950012638289961 0.22341378259281594043 0.1051056099261970106 0.24168805177620350522 0.24787601162623879025 -0.055467785868128151316 -0.1663824354069538547 -0.071404458299188858228 0.10874151485946416396 0.14911061510717557588 -0.18417984133687026471 0.062298175084468027096 -0.24425761807250703783 0.059214938880211093197 -0.18335828775268206425 0.25892390550853566777 0.34760110119650600158 0.06983069439645583909 0.099987609430282939349 -0.35281378700676241378 -0.019090000082981346818 0.093869515445972134815 -0.37445851075154651388 -0.23176909514549937086 -0.15551582248394929531 0.18604462314437569814 0.19272214328448422638 0.10282480635088725451 -0.051970260598248350925 -0.13583319133992929895 -0.37526947621503209396 0.23310792087600887279 -0.051589041682040120973 -0.053490437963980931591 -0.22380013480605423504 -0.19808143139588751946 -0.17719998201400333215 -0.32510269595262802911 -0.029659051275917613921 -0.03380469754697977558 0.051188294415693676165 0.170263111962006497 0.22367633215427737414 0.070612012739703786113 0.018258451778533402871 0.023482549300535761339 0.085229948392898824405 -0.21332323698571914461;0.12965088262641444317 -0.36873019033808468459 -0.022357762944513193126 -0.13686464016577251646 0.12717801655981877951 0.1922814690467747889 -0.15904521130864837652 -0.13374295734716160067 0.039278414592799577865 0.26021743341637987301 0.099066936110336678567 -0.14775654465769472168 0.62082415180780814445 0.36686060036746476198 -0.26975209948252121261 0.30989214371870171805 -0.173126625266074613 0.24617472073986534919 0.14897836575978787299 -0.23748103314936699904 0.3061477571100506001 -0.036235228931364209248 -0.12991807313758590992 0.00062884177073068477787 0.125583217044267198 0.09080064205692800483 -0.039294918912422711899 0.21738847713015455043 0.25814017840149022787 -0.28854192472082162979 0.34425566723342315711 0.14346972627224433006 0.033210559203438849707 0.12112806753291503747 -0.010938865538337075312 -0.15612181400481831006 0.1728638849096698904 -0.096025251807863781783 -0.15574593057122532169 -0.089492738779858679865 0.1978521736517399876 -0.40956484750662153216 0.35332059138362309492 0.33984572886004937864 0.15555198474850709389 -0.0048952899859744363614 0.132050030639708188 -0.064865782025674362243 -0.22648461538894917866 1.1079351527244796216 0.089017080404381207503 0.4146784159320064389 -0.072680905603022524786 -0.16040094465182033745 0.084384377146781361367 0.23704286277543981654 -0.35887316562482463045 0.099277808749738183369 -0.32615470007382857398 0.29519816592766467966 -0.19121525358366758818 0.013238293491754850317 -0.037007888929929996791 0.082713652495916473173;-0.21597972355021097246 0.011213112361112630155 -0.18266145592616667148 0.047169975109273322433 -0.29635552953482496852 -0.35301136504424340812 -0.45937748574471509722 0.21515734677995920765 0.17273978196930794837 -0.030877876284558479492 -0.34189331243182941034 0.023108768929067453196 -0.21646486003842752011 -0.081590751137285644212 -0.27620487335403537399 -0.01752788382977718204 0.12852264997797624435 -0.27841082835509867177 -0.0081753463209015414526 -0.2635774003000734278 0.094073701312216290171 -0.096916499258621086055 -0.12317397510249029902 0.014938202863336424303 -0.35947001114760745999 -0.08186772225522528923 -0.11886632727909780816 0.021919034437763555007 -0.18395428730367305303 0.15705755550019898092 -0.025991351772051436014 -0.015899267236125610298 0.2431591516844946177 0.14905933054910769364 -0.071040489556961322615 -0.14024953081914653952 -0.18048036181450183291 0.075937762224725077753 -0.18735469982281180434 0.15592210458626012959 -0.05819842467752438242 -0.14850346888059290373 -0.31553338401089903176 -0.22134081266641808527 -0.1019188387783591665 0.14571631070165846911 0.071279127378931647629 -0.19187478123786377848 0.42047651920324297103 0.2585612286843325669 0.035411505853366706531 -0.012222798564345108835 0.36874517729052413983 -0.35931055727904226416 0.44699075434441570831 0.12607133406880161042 0.1805274599478090547 0.094005854159207008491 -0.033304650505003412231 -0.0015778380624583698832 -0.10637977245724979103 0.02749236599874696832 -0.28568406896462633648 -0.016039415991777473958;0.24547318280376517752 -0.41275099913687207653 0.34912451570538910461 0.30862808305545907928 -0.32015101749927804553 0.022010069616454394636 0.14755796252099290244 -0.15670383006723426211 0.06634639660678670614 -0.16372128522865345146 -0.069959150898347990943 -0.12013619485983402513 0.17057073810292022742 0.279888729990716012 0.15802923419638578717 0.14037713696813330921 -0.27614253026953206049 -0.0059375065704723771834 -0.070917823394106405122 0.25413360142208107906 0.11594145584825522877 -0.56838346020444474593 -0.16670039234434941289 0.12866571629423451117 0.22429312249748736829 0.22914453032444750957 -0.052016905187353051909 0.24441341895567894604 0.1140354466168834735 0.27051165913070751579 0.21028652043979029207 -0.21481750443453237476 0.024236075151472892542 -0.24452557770618055244 -0.51761089702818152691 -0.092460036632697001346 0.13974861224052154141 0.036891169126669093314 0.16994109079141561658 -0.30775961248472794018 0.23038340552619937518 -0.17169064161388941647 -0.34599331609735600734 -0.29488686416560572212 -0.24995134366879728782 -0.45853921940750835828 0.19931630356123342107 0.20917608012872607182 0.082963016665659305993 -0.17378910960282659137 0.25980513063470278556 0.2406882677807182791 0.22430555722963566034 0.30066231027014611588 -0.82265686745494104315 0.03270822149191209699 0.15040558550313351538 0.33772101008243093911 -0.13613312909486144364 -0.081951167492461160502 0.32901820588075297858 -0.16340004736492103055 0.34374182879064546503 0.30029381108506209008;0.027636853798694467621 0.0028698867029947113666 -0.064155591657025973218 0.20132430393028369342 -0.45530425766004095633 -0.45145872116445789901 0.3008379289626865738 -0.26716590111692278819 -0.08664895868258573608 -0.080208340028321278847 -0.0092343659623173590667 -0.26039379377941052063 0.080705377453445387159 -0.11862084554713152318 -0.11565565018846599155 -0.31238249967582876199 -0.13323537486983300093 -0.51549874407392926035 0.10120115758544037665 0.17503905216454507254 0.10169933541842873792 0.050016241767119357098 -0.019413566266952921729 0.35304523076658295144 0.21519663182861659134 -0.053641536555921034979 -0.52694597555266875499 0.10530167924917510636 -0.25318795693014600756 0.83455097861749960586 0.11572452473608686729 0.92534094166626856826 -0.014239318769211913723 -0.31481095424406696504 0.083850001807395185827 0.19042063760526353744 -0.48923377254461514196 -0.20687964056669749802 -0.26928768248840956323 0.021978542513931931951 0.30172252239100261217 -0.30152684323161710322 0.11808143070570138733 0.21028930860627736976 -0.010109398685613193297 0.066818945773716068026 -0.35824009646994176004 0.03830029092934163909 0.41992242967992099434 0.082982835135151644668 0.14707812032238506972 0.16356745846798306787 -0.20559494161821048608 0.23143797949193142816 0.15268730155598000953 -0.0033248772496665811998 0.090870140180297945265 0.1617896652290454762 -0.1822222503628289636 0.24388001802943107266 -0.85031005498273748433 0.23747905606889418983 -0.23804018273482091539 0.18743310655302175549;0.18073592757992179569 -0.29273796947423175174 -0.043939874444654927754 0.067766244898765273796 0.24278000305136038239 0.34657749793691150497 0.011753028367079046412 0.18151990232505657574 -0.049828012516071454319 -0.18234595319678217895 -0.27412098560398684421 0.057851532503372084248 0.22129835478480888722 0.12157105955320582358 0.28257555822717017602 0.59662864936968573737 0.01161962977235663115 0.0011411805345425179905 -0.10322863646731518517 -0.081180345236042575352 0.32970443169422564145 0.019740104763719588943 -0.6857017570833061626 -0.096985373565143251362 0.14625844703703316796 -0.081361768648810506299 -0.34195972466940904866 -0.26575336245191844009 0.30415837817874191717 -0.79464206696422368115 0.049956787304142581674 -0.16646821579109841172 0.030621765376346518628 0.077274994840452040923 -0.20178780351477731969 0.2412930616075436574 0.32335604123685379729 0.2008204109520333458 0.029118436757032448159 -0.27036748206429084274 -0.088685096124476614499 0.010370657704000967037 0.044088782034172949165 -0.043473845692721668765 0.30512976439126887618 -0.15505032548694511196 0.26559692952079028139 0.22121282387691190707 0.074914707134524513577 0.16892877777531054018 -0.22745910574390670877 0.34316507658943601333 0.038414891340874744718 -0.17994684173414052242 0.0068662451235417514689 -0.29490840568071985395 -0.40930291207642488516 -0.064219157341282612217 -0.18943867103839856503 0.35666697084132870099 0.31604859265372209354 -0.20432346184659472277 0.074017474427173782225 0.19432680941555097176;0.087325869414420928538 0.189050777961458083 0.34292714478215230445 0.25011573549253252047 0.16394675365733488159 -0.29033625629107034927 -0.10916730356053318263 0.028131413602622317577 0.25995032668682022114 -0.2486518907208158935 -0.24100264982003924419 0.30065896446597401015 0.050991726752329165351 0.18295287592057032922 -0.11753328658349998515 -0.024490110894765562688 -0.42551230915874899141 0.015109831600338782809 0.27303325144149337422 0.071617047357236313099 0.13042719442018263498 0.22528871959963656102 -0.19525389097735451616 0.13512759363601825613 0.14768972117506551367 -0.16265144409638435108 0.04236577057550848513 0.16737773808398148656 0.35244306727152835412 -0.060200145000405706763 0.18342600443725620707 -0.08955609672622773243 -0.17969794432548899521 0.17609487600024245624 -0.018649328405967603023 0.2041324074220606799 0.33873141320691757539 0.27897917522728377104 -0.01183042323810570319 -0.11784295639420531987 0.01525190925797182892 0.12533182117807581402 0.28455041531744079686 0.12592831669149595619 0.17171864485038254577 -0.12550493279630164922 -0.23017505402127821923 0.33659564183445805918 0.15074007311109996476 -0.33437915522871985985 -0.23936854861247214288 0.16044082660563827036 -0.27736590839563168842 0.095307367343347895727 -0.34304324703851263312 -0.074256145687217334217 0.078934125626471035586 0.04928597663535752571 -0.079076980400101706814 -0.28172549176108269142 0.18831786352638116289 -0.029369385438499186203 -0.15270253370749367616 0.18669627107106626096;0.14854833531271025016 -0.0075860821805628234418 -0.059682685212091329818 0.39304842086308594551 0.22285821358163257488 0.18083411696848095129 0.36093650787789166579 0.17605374075132049216 0.17296019240861840172 -0.26616768603829976669 -0.069527028493935480458 -0.26711586010179061423 -0.29196452529145106025 -0.10225141899185304084 0.03749722716781850318 -0.21179829339793507237 -0.15332622162751050054 0.060083298827769721084 -0.12356453435055868295 0.18199566764139313291 0.16476231501525162582 0.25627560468142318584 0.070742519622891866793 0.23711311356071801404 -0.0056468304595646365979 -0.12177983437505950082 -0.14173507740117319287 0.27324990784457514614 -0.019928367289037816901 0.1661852042757087089 0.017076448165864351048 -0.27981998343606256929 -0.22839045581324757261 -0.2325629920507561732 0.018292062712551480919 -0.16520327750886959484 0.12188689651077247444 -0.0071949495125249460573 0.41421774281829321085 -0.070323360602560738841 0.23711395753891714722 -0.13617458730855480642 0.34636102392714535059 0.22420476279173909284 -0.062908004890969218548 -0.0075845417332018006881 -0.12277238172288237883 -0.060064703697392571313 0.1130805470157351944 -0.19196171059836594774 -0.21864526386295285443 -0.11526062551364571473 0.14889133917451316536 -0.19402094522236534857 0.47784570025498301904 -0.22454519039830553306 -0.00020517119833248710268 0.028280291601794127487 -0.2196905885375909917 0.28922464101086003962 -0.15896929050236224823 0.21771773150475201564 -0.46712520843978044827 -0.13019158857824525422;-0.20519030723793724169 -0.073448825955258020826 0.26716802995183891456 -0.076218841552628507907 0.15553680005679895726 -0.14021233568002122727 0.002308421190961926564 -0.40967434952895892541 0.25770552024575693606 -0.062062125720965408138 -0.2410747728011799762 0.15500455507449048542 0.31523732701209145057 0.20964772706346179731 0.11616476996039817871 0.16296988448583593634 -0.17978520633853473099 -0.054689183474867585077 -0.20745296300662555145 0.1478892291546674842 -0.28093088345607436507 0.18100247251701057083 0.012396529563549972194 -0.075916412140156874777 0.24050374231865975783 0.27345810841283352266 0.070018581108376096167 -0.010184868392977832266 0.22866004737441325556 0.24088261046184239467 -0.18615891170412526834 -0.11078364543139451737 0.34545373056851874649 -0.19145359307018663952 0.042959995751862482816 0.04162433397109213673 0.27740375904870911983 -0.15314009540437811818 -0.076894666244785650489 0.0051326540134206269719 0.28213646308694256826 0.20341113606919888901 0.10249497431578179218 0.16143064078045119003 -0.12142084872326429357 -0.33588439666554781304 -0.18142108572939166788 -0.23576332386648032879 0.088936663708460844679 -0.14706557581568041604 0.21539153274304698171 0.35134928575221785474 -0.20513547452860553255 -0.051365647610042933224 0.03825824398964368378 -0.14729942046653646259 -0.2008883476130988166 -0.24498530782773719761 -0.18764956137448923768 -0.03148174832244390875 0.13594287406577335031 0.047755698014738341695 -0.13422193519671335449 -0.26872238756309707597;0.23276883669095574381 -0.52647962608248799476 0.30689980526757365542 0.3197164872794453494 -0.31216307544856719547 0.17198810215453227968 0.053936611083247661125 -0.33180549447771084948 0.80287614320943556656 -0.21586595512656844842 -0.24274606126209030688 0.45448200887512663071 0.11326171911171559192 0.079791521989925243141 -0.24858731146627516262 -0.033683405188592814572 0.18630388436233011329 -0.15707181130076969255 -0.072405849318467052633 -0.15222278681010487089 -0.023418862315255865175 -0.26325914030737496141 -0.18137589634405670846 -0.202487769868299472 0.30578065671040965956 0.01286274276702074372 0.49906093356145331263 -0.14777176705940187063 -0.043499628289314390406 0.42907531022699996193 0.2557697320435055599 -0.30062688875531407007 -0.13506956734509931173 -0.37944426861437691167 -0.26795270360822731615 0.017381485749464901935 -0.14119664375266230416 -0.03438961794454705595 -0.35547032867018601987 -0.22440127202895088221 0.22328465474234759913 0.1651481181517703567 0.11091865414303121729 -0.033698843280483073426 0.42323415516487977728 -0.11177341714164769348 0.19007310978157718195 0.17486914156115890284 0.31327645766419887075 -0.021752916606178614861 -0.22981971272601889322 -0.12080032338363744238 -0.10099240506236406567 -0.058116270541815014117 0.70716582372097980258 0.22075382421844136349 -0.21928736445136245981 -0.13988401754087798068 0.061287687483990493931 -0.24985964059237003587 0.54697065083360829618 0.037699984396288202526 -0.36335278993298553152 0.10025104366659282062;0.10152618838580500238 -0.25367948851000221566 -0.25601114488504994604 0.20640912712355111158 0.20686121364697826475 -0.11241236734814967491 -0.28241148788943915005 0.084592368217270785813 -0.062047214852342193192 -0.0018241084977083361993 -0.19419328980059810674 0.21585879758854334409 0.22845766565335429155 0.019824780346794124847 -0.21267471558661638076 -0.063209387412437784137 0.16600516324446457084 0.38880082996711395893 -0.026284821490646568393 0.12351276064167646118 -0.37693677178585033305 -0.26471421568548991754 -0.022162232273553055667 0.03706007720758411339 -0.16885370933168047936 -0.099568454357441285585 0.064492321323456669457 -0.1930232122490783131 -0.24692452737909406646 0.19389479995940800405 0.051291447715456579826 -0.080662169571130912238 0.35588738017625326515 0.18390936561825269036 0.25476786136378293257 0.21655501966955473248 0.21747813555010744868 0.18108041830830562402 0.28403142312492374311 -0.029327259537467710582 -0.27477991566924458988 0.27424344505920328352 -0.072085859376082472849 -0.031232719204237809757 0.28456723820867302344 0.080555175430478645482 -0.12057251390765956478 -0.1243461878483838462 0.21103019831841657306 -0.21709394316217542342 0.14841609267013905482 0.20651319558842803903 0.19743402009633675975 -0.26668240126722897454 -0.20670079488891127117 0.29874489955616373438 -0.11334689267388822764 0.16917827085681544363 0.22064065448365199895 0.25211084736754052482 0.21047485032697449414 -0.014453149681418963127 -0.22024912976451430091 -0.040473392592411228108;-0.15164654067612667876 -0.083672313107782433916 0.027697206194187605488 0.021893213968229401079 -0.227392349319195608 0.14783563359091433931 0.2327265325989356648 0.1502816961905783788 -0.053738399284491297769 0.26870089578485795156 -0.0037171763821700056982 0.25586888273317204279 0.19190487625309401998 0.020465712881587258543 0.16192221458077551977 0.052642151767065742396 -0.029189387847795424807 -0.13359210190894141301 -0.025510715679770930298 -0.040852539504639365231 0.22085565046606023265 0.15441633359499667977 0.17890913491977508687 0.073258962568301624896 0.14232125201988243823 -0.15289715844830417679 0.25131499632095372077 -0.27426517645717801708 -0.1850368941583333815 0.0944765756782085242 0.08176818392823498316 -0.28954585205031968531 -0.16842624812419018654 -0.37894919370696067418 0.13984449873481763493 -0.18795081068350055764 -0.2013280228510185843 0.36289557218609830302 -0.19794580662329627763 0.0056817762213373888824 0.11334130250271234885 0.16355539305599844924 0.21290932611483226466 0.1184774928374732611 0.043841431404779626635 -0.16974622807455944096 0.22801677999647546047 0.077640085990600612997 -0.34055009636982958021 -0.21331434656979381126 -0.10524990817593518622 0.074509450970226653865 0.20161403431834876154 0.034998307868242102547 -0.38852917609078735373 -0.0859919492618057002 -0.4406350229488151804 0.1912590038520839697 -0.20436154089364078068 0.11138820321621124843 -0.20397794250150680373 -0.057946393591945935531 -0.16228914888000603445 0.15156871011247002867;0.15580302660782863189 -0.077900253021206525283 -0.036902875040178730048 0.20159253340077007421 -0.1811825432785530432 -0.22122207236139099229 0.070273071416269636269 0.26567974718799031164 -0.11133116225927418286 0.19611834482436846239 -0.024686627405651789119 0.067527419660171089655 0.22073135339868465987 -0.0088985799996331160777 -0.2830849176090838859 0.16412710600200466904 0.20982099869447315421 -0.018389831690512510598 -0.22816503764765594386 0.32711456187444665211 0.19923490438750532383 0.096163439754506876977 0.15792947281075189747 -0.01770812919258309831 0.071432344612909259851 -0.17239581622737204514 0.23448655354851913324 0.4237699120316241741 0.11591025326103471249 -0.26848502563882170602 -0.40371711336813814741 -0.15915842145874461999 -0.17704364471847874873 0.095435801310531837016 -0.061184198128925025573 0.15831488888618550082 0.31914533043176990246 0.18675217486337974959 -0.14291310184590449994 -0.22899986366796695747 -0.22458840409458519227 -0.1426048966143731167 -0.0060397887006509434413 -0.036196332931973440594 0.13542541798979262913 0.39372423789153182527 0.25275256962567560493 0.049865767621672621446 0.13751233528906692261 -0.078190813405434198002 -0.11787011981769882074 -0.13716016027450625425 0.030396750462808902471 0.039171447104350290425 0.25043703069250711213 -0.198980322313350666 0.13318692081802782634 0.15551775681394156003 -0.093695660743805364579 0.10852173665913161793 -0.20751388306277671059 -0.25032955554998026493 0.19569892752746764764 0.15021291711089634902;0.14924553862350364852 -0.059485895960254678294 0.14292580378720820544 -0.036133391973791714746 -0.2749855477988942809 0.017683788134395538733 -0.15931004413265020814 -0.20202379398383665809 0.15312517998007310616 0.15843435336496669574 0.13325249444423833967 -0.26232106711863684145 0.093218845691881949134 -0.32732290150383153149 -0.32788016109510653706 0.030359819278392975034 0.17190848518386603327 0.029215345786097888375 0.3700699256309354368 -0.093165203013658950959 0.11789605580579719246 -0.050787940793024566322 -0.039828994735675880834 -0.10144611680474688309 -0.11881270555204184736 0.064280464375387383336 -0.28411045866335521426 0.10394686363837148113 -0.16455261138241189522 0.11576560714350359049 0.40756091898038976362 -0.17451271448716709767 0.28821903623897454638 0.17336308480346926397 0.18339806878851205862 -0.24667902831543639386 -0.36624957307515282334 0.31563541657814159214 0.092001453374328773238 -0.18785129530956160004 -0.23661245410354675434 -0.13438270634537832771 0.064990653445465521032 0.19135691213720371073 0.041589445711214131918 -0.024515803956196142305 0.19666804542552354662 0.12697559470500480172 0.091309217780198570491 0.089707018653046907697 0.28471415974794722636 -0.11225133578850129967 0.0017936006806387216114 -0.074550359814866629105 0.1186960256945029657 -0.21872280170423694101 0.093029747447030505803 0.37783652652578014752 -0.35399218349172378861 -0.35442915975381944493 -0.23327840101699212627 0.16278977486901893834 -0.025105682566964517693 -0.19489376164466967745;-0.293642695075192528 0.079331889918532474959 -0.31577985367687305684 0.057688226617378844663 -0.23739793099058403847 0.034396199962312377918 0.099828152126944513789 -0.035315550185871916189 -0.26994420706717930925 0.1777440955123280597 -0.0089046581757959673842 0.33569639316773758342 -0.15992211279438889315 -0.12023544950839959444 0.13433374105830928058 0.19347619023664539006 -0.044710126690256486726 -0.21193781853635906831 -0.16070608085122731201 -0.029958764953877108084 -0.20054886755743769888 -0.013916776676255944098 0.066586956604249153413 -0.031109215224900392538 -0.26649917213525164961 -0.16738751255517497762 -0.022162656133777949852 0.099426701282548227145 0.13360351172728238134 -0.18687515542550270364 0.00805516054653784494 -0.0730612883535664559 0.21660463616941211251 0.32277857521580882727 0.1620362618704100921 -0.26192230771747154749 -0.17917880090782739577 -0.085915750008773092428 0.16415208650336934881 0.34317948629997030441 -0.2498762182304954671 -0.18869882941918023067 -0.08015086950850106029 0.038770143076549495875 0.14781888146920546534 -0.35513303572413584819 0.017619622761081997486 -0.28806816002927848608 0.15417252638781181462 0.048890501042150431854 0.11317162181734929938 0.28235779178676428947 -0.2573487363840964437 0.2542939175357217807 -0.11618562679514186919 -0.19274211478372710316 -0.030429128014610160036 -0.31007912447892127528 -0.19847883805716695638 0.10515412739566988576 0.20386744659990585493 0.022977910714476541126 -0.079078975004127721737 0.33932147985733190909;-0.15112898412109779245 0.50718280810342686316 0.13166167720470503544 0.18121158061901043723 0.095786944212858979308 0.12875276439191793432 0.48976703582852193497 -0.27064932736075048014 0.25322496092701207715 0.14578783585663740441 -0.18780559464276599946 -0.055721435121121723477 0.14389442046326547664 -0.036090545647480203051 0.025643303895599742909 0.012807289843258037529 -0.27997604261932051983 -0.72002097434445910817 -0.0064871546836980722994 -0.1043402615906349612 0.36791827526125520098 0.18315911975979906612 0.17296673050682648265 0.02248310480648577081 -0.20018069135473851028 -0.12173586780460897427 -0.13050585003858033994 -0.13725683711046807178 -0.092055673889654840436 0.11760426684698810362 -0.34675320680841553722 -0.059407124378297579415 -0.21670914576356445358 0.26698424838927353742 0.39039598631546612584 -0.098391636518445624304 -0.096561171663377576291 0.13102116543484268463 -0.15048941757169498334 -0.038028184159558331423 0.20668665662816546047 -0.062474819163755065943 -0.40830005127917745611 -0.033170879294233450441 0.084333955845077870905 0.28964191007149314716 -0.22706194261697432157 0.32688684273470425268 0.34633965494975832433 0.02860433955395673411 -0.11954463524967996746 -0.11671131299994969011 0.14894974438030647579 -0.063301481987948451935 0.3512779632771583227 -0.0038016481663635010198 -0.1765134207518821996 0.061757222180387830179 0.027980629636164974783 -0.35703484930090567673 0.76110516613736767244 -0.072536719042421718417 0.0020998373190309633368 -0.26566224306637115093;-0.021126487063170436981 0.25912341073794631363 0.002279585536227640187 0.20701835431961446155 -0.17185571273869479358 0.28257597580428517325 -0.078403444517104459166 0.1681168659223022388 0.33659155194426648716 -0.13296578113504212149 -0.03873096153877404052 0.22465821741544528267 0.0061915577321025368901 -0.16207100108776711922 -0.21264561963302644476 0.23824237944009210577 -0.044743355875601090177 -0.060007788676734383215 -0.14703063547925118715 0.053026732985135341392 0.042407692621447570791 -0.22581074020006161596 0.06511116398404288852 -0.092892734855678490979 -0.085668415288219140757 -0.33291635893253140877 -0.2458013529205150538 -0.12087452789606696613 -0.16288505762136218369 -0.41432825390090055606 -0.29746326994470706495 0.097749858002787293199 0.097331655570379829734 -0.059126522508982620741 -0.20743145055775388808 0.076943718300792662834 -0.19779015098511437687 0.022544048570927170683 -0.10386122363525490675 0.13586706231340950346 0.27528624869065509984 -0.22691296640073274626 0.11433947787293922971 -0.034625838191443158998 0.0069434184572389097412 0.29686415848059766187 0.15975471680196962065 -0.14363738513436463684 -0.044121752544947157038 -0.1102019483861022553 -0.11943806624720096354 0.23290306419685369299 -0.28233747239470186052 0.41351041307498814792 -0.13068477737699021879 0.23962735283786060214 -0.22219690670509525954 -0.054743101505185069733 -0.012309271694645889522 0.26179459679234312608 0.094436119569940968344 -0.11600988931481683031 0.088970022280908903078 0.26233948849738508713;-0.24778329437062976415 0.16694059877356895449 -0.21589402981670638426 0.07345890009500066764 -0.20166604786050285059 -0.21872267780318505048 0.31432974227757493058 0.30502994684800044389 0.47242495828432101712 0.117513662780663386 0.0177191784239631063 0.16372265938646998751 0.29091698927444559208 0.074582459766609141005 0.12202240053171581335 -0.58686889397223074294 0.1173556679140487502 -0.3087660320789660795 -0.41509312854381325009 0.18079951807656455265 0.078685318453891012203 0.090665417582690102649 0.26096134974234430626 0.25503503898491325375 0.16472173314335239458 -0.012892152452591034567 0.15697430907158715918 0.071342112370155294498 -0.28885264402349997148 -0.034234568022409435362 -0.2514076107584769515 -0.26282756943286755824 -0.095632657931069953161 0.18067909480406682543 0.22708355983323219585 0.16405208980650565209 -0.2890598718399868261 -0.065607608871526904015 -0.26404615387223240308 -0.1151494980150868791 -0.21197748106438149551 -0.15706951869183111148 -0.017031267278696648332 -0.093966231610161404797 0.16052964320736204384 -0.47282120674659222637 -0.19348126756599748344 0.17273309207645837215 -0.0028155976606177384423 0.45468431359066657782 -0.027491656654875334248 -0.024099833184263803193 0.045026781444407977528 0.30138813255005475478 -0.48465514371345713718 -0.28568750764275530063 0.0044126218119714859592 -0.16459888288946625257 -0.32282680048031775488 -0.10632333381240259562 -0.15771168360785045581 0.30651745056342522 -0.049974219213482169721 -0.20767228005885077224;0.091902605113023436156 0.34759581395229649514 -0.12293394171364881162 -0.26567923073876831275 -0.092264641356398127692 0.175694906759533781 -0.072816329975497418037 0.33105802363641240182 -0.1418534780848479393 -0.016759199008665827402 0.307086909961737764 0.23079749573189001222 -0.29417510862987983344 0.08747487332099106172 -0.36965904629597506892 -0.029297732361957120467 0.17874613749318418732 -0.31744641879633134218 0.070408363028129972161 0.16968446328467026718 0.32505340602667348593 -0.11689593042365513387 -0.037827503115159151481 0.2864724633470591697 0.019199919009276693316 -0.096377261645922196465 0.30723163516765322756 0.026252687732052065045 -0.029045323434258699807 -0.13746028270346380418 0.034430786595069949596 -0.12718860565966755294 0.1231427268407058323 0.06912902654534226754 