function [Y,Xf,Af] = myNeuralNetworkFunction(X,~,~)
%MYNEURALNETWORKFUNCTION neural network simulation function.
%
% Auto-generated by MATLAB, 20-Oct-2025 09:57:37.
% 
% [Y] = myNeuralNetworkFunction(X,~,~) takes these arguments:
% 
%   X = 1xTS cell, 1 inputs over TS timesteps
%   Each X{1,ts} = 4xQ matrix, input #1 at timestep ts.
% 
% and returns:
%   Y = 1xTS cell of 1 outputs over TS timesteps.
%   Each Y{1,ts} = 3xQ matrix, output #1 at timestep ts.
% 
% where Q is number of samples (or series) and TS is the number of timesteps.

%#ok<*RPMT0>

% ===== NEURAL NETWORK CONSTANTS =====

% Input 1
x1_step1.xoffset = [1.66018141861239;1.62411718893806;1.44489513058563;1.43688436957262];
x1_step1.gain = [1.85760858332147;1.91985785294161;1.6000106956428;1.58265661706756];
x1_step1.ymin = -1;

% Layer 1
b1 = [-4.8650442129255120349;-4.2596712610512561525;-10.000454559734835769;-11.195008471058278232;10.195141958279103633;3.4425994945630220556;3.216929858774803197;10.46159062995283584;-10.348574611385474853;-2.0985853200995929768;-3.429508656765742014;-2.3900433991229981245;-2.9863848436435356248;-2.2529258799998213014;1.6675572522384278784;-2.1858727198839753569;-1.5810673308295351003;2.3877768178104865626;-2.0614464710228821431;-1.9239014886350702671;1.8401223112768323453;-1.3873958658813994038;1.5752051013485228736;1.2811049416161919279;1.5844822128748270451;-1.616816041933835546;0.89802966546622531308;-1.2123104067741015122;0.48741064615076390432;0.12000266997133250679;0.45926313313429317775;-0.52210409599897211752;-0.18658452127460695147;1.2370242269074502861;0.83535397401736766199;-0.67549038583365939026;0.41602548189221855157;0.35725813418103430363;-1.7685372095683711269;-0.58420734398270268706;-2.1232230555626876445;-2.1683800112754112455;1.3869029762889588664;2.2379403462937874636;0.95013934205495031993;-2.9003693276373767596;2.0806241583072599965;1.6809398708205165462;3.5922789851266339056;-0.68772437078014736489;-1.7973492500216132761;2.4720407121683694029;-2.3862416822341288025;6.1207101781785508976;-2.4913819190811845594;-7.6694002332326665083;4.7427559014414919503;3.1002633937038717171;-9.9607159792395805198;4.130526143327995392;3.9793000989876703422;4.6701289168170356803;3.8896334064645645689;-10.839239857696219005];
IW1_1 = [0.78263950048697739081 0.5482949955967958422 -3.338337197361019637 1.0766147584170087104;0.56655586445492123193 2.9336171787551164059 -1.9683293900986893465 -0.90095246652591964853;6.2500687608524767569 3.0509663337120369597 -1.139898391465352212 2.0350077394040817502;2.4835971134038032915 1.0203691641811349911 4.0114030658218728931 3.0785944679678380886;-7.5494216818388233392 -1.5888536657135237107 0.85425320364934964612 -1.2728220166780734868;-1.1522823760654898884 -2.1863927520375852076 1.3309338243251178646 2.964613725842345282;-2.1469968973350650465 2.7976902608779754544 0.78919751792802694812 1.4104550367860471116;-1.3173757152315017649 -7.0219123515960717441 -1.115130586407771629 -0.37858699623810448953;1.4841438132658950622 1.6358273062589825386 5.0256191764411992651 2.4051956420728095587;1.6999671210927074227 -4.1875616198417402458 -1.0699971280816660268 2.3417249043165213607;1.8163556809539604942 1.9025428895424987275 1.5083387906818472857 -0.99316209128708621279;2.3671711499363801146 -0.70197606872753404161 -2.2856638720746027538 1.8144088366176172045;1.3759238058691096729 -1.4241964139730765027 -1.6148755045511591355 -2.5012107440477389098;1.4119815620482443208 -0.50550055721364162142 2.8216481094045207101 3.6681449871437794563;-3.317803531267126349 -0.22873314167202984937 0.64840029191132819708 2.0849231298718651217;1.3028467970670629672 2.9233035728745715431 -1.5400246401354602543 -2.1398106677766000061;2.2649500710435823692 -1.9800457630764425332 -0.026621004870036373002 -2.7393933737775539861;-3.6366218111765382659 -0.87111109699586286581 0.44548820143802264626 0.92861352381335127149;3.0160488953591815253 0.72134456696727344838 -0.9262676617117177047 1.4813464102759046348;2.4828419947419737568 0.49327072642347374876 -3.1538227243529499688 2.00327452426039887;-0.55486881861824710604 -2.7838043798903933101 -0.15481232126844382546 -2.0791229112405789081;1.7041350113601603233 0.61728292131118744912 -0.20104525816632135005 1.1365756393390229473;-2.2574121827107722638 0.48046954928237195492 -2.5756727938557975044 1.4979890200096657171;-0.96860161662241228697 -4.2248648556931920339 0.63581682808477812952 -1.6427347495760382667;-3.2025655401400880962 0.62456340840146373772 -1.2257546248079385087 1.918383858358291727;2.4858839887656705159 1.4074244969961569041 -0.73489840592899957628 -1.184496744265100876;-0.67531535970308920191 3.364840458865317796 1.6511896228055831237 0.60038473132538394683;1.7084785867747551702 -0.47957587681840241345 2.7566606777654625304 2.4840691298081871707;-1.1282046878548919189 2.8184119862234697784 1.3099888620602795353 1.0894630155604032584;-2.1464738377288528071 -1.1910718898876473393 -1.2516088599642021251 1.5638320923550772523;3.6313600270535753012 0.08405560765278813351 0.50614953359472092398 2.0598924337561457243;1.1421459375112827939 0.043688402517646343637 -3.862643251236922648 2.116274250322379924;-1.535638272702517293 -1.6295301455473540919 2.4967337069446413622 2.0792509491603414773;2.098402374050466701 1.8358997537677494982 -2.1479710660236031039 -1.0325242820781259656;0.91915193421542518148 2.8352434106725135088 -0.036048449973612783914 -2.100488184774158551;0.075305094872728406408 -3.9826075762568047267 -0.44348746695556118258 -1.011497615982938969;2.4503800337742061011 -0.53233688545107893386 1.3400146002679456103 1.4592843188818322986;1.4340170057342283005 3.4523076443235183319 1.7800593497565744272 -1.2223624696387280775;-4.2617257528494159047 -1.6697516412428046184 1.7699870139794871005 0.072011662397901049504;-0.78095254879954523197 0.80472360994180724969 -3.0923535594106299484 2.4413159257731318341;-0.40510930495427310838 -2.714661820479597143 3.0991536261343495262 1.1027235656930756136;-2.1665751310789476136 2.1493912619049182489 0.7629389794807924785 1.1721851444088515759;0.5664945154607604616 1.4302671994587889959 3.2230733233622403944 -2.0405568726372558253;0.50932964362555643856 -2.4596733557002523618 1.2328210027543016203 2.0785001053067677645;2.8243561707316842124 0.7337962683149634735 0.26976211822704543319 2.1264621727752435199;-0.036275156475056184735 3.5724566057522673113 -1.1267905318600484055 0.66539211203146086948;2.0918068313760840304 -2.752573622673350151 -1.0455238577207439654 0.35719250974099781004;0.01990076902332168704 2.2955411922181725437 -2.7814473570278477332 -0.76312405147127115868;-0.36088013451834544121 -3.5353140541984675593 0.16371666303319082347 -0.91815233730562029191;-2.7386776432024739769 -3.0905067886523616139 -0.12410476371783547844 2.0817668084414444607;-2.5090319915745862289 1.1941029101048015182 -2.2397633512148473756 2.005348645064658708;2.984141586160294235 -0.20211854525861452925 1.5091139988860360344 -2.3716763061059702444;-2.1185890716946293999 -0.35791725260221463056 -2.8514764857132233189 0.33541167432505752943;-0.70053456676870018427 1.1177253148904622293 -4.3297966311731910238 -1.7127350543982649;-1.5416409148830669817 2.6267107064859320786 -1.4920887194309488955 -1.8948932759617742594;-0.26707370158995286102 -0.088979913494349943681 6.0767050775472775115 1.8675642616786134464;1.0113056244173410647 -2.9013700904365138378 0.15092357111482382348 -2.3770691263940117999;1.6816733922421591707 -2.6203818732228087995 -0.33575792373188073636 2.3885963773237679497;1.3774453980725518409 6.8778189375369205294 0.95241696472685577479 1.1218655373376247297;1.3993198910518251932 -2.2303468652224061053 -1.9349219600429454768 1.6630012727787675253;-0.19367649387137200745 -1.1668111878515907698 3.1331018951633540226 2.0137493143116187433;0.50619326659066654628 0.0073252726124894236223 -0.12702117284639904971 -3.7456541651852837127;1.9841033339418745474 -2.3450632180883745903 2.2286287430424582823 -1.0257374982573750355;-0.32462645986942301191 1.0674444081029534903 7.8049364289285101393 1.5901154925127227724];

% Layer 2
b2 = [-0.063656668844491268167;1.2305016399622838996;-1.2489609360124707127];
LW2_1 = [0.99813812363957732376 -1.0747911126114728653 3.3148491507560451375 -2.6248112020336931138 8.0885274950193473131 0.31317697944990979808 -0.084379231089776324248 -6.5926611979855298529 -0.14786371066260076135 -0.019498545089123561769 2.0142847775234145047 0.84620151699193046912 -0.10940945781416154536 -0.59161993941809265518 -0.21794246145554907468 -0.51416668643991314536 0.044181338010898234259 -0.23564937765218227361 0.086035204652228941535 -0.75504079889215824917 -0.51911508531704042557 -0.088336417254082269523 0.12805675237758842866 0.4670689075075517005 0.78932179350354170211 0.0037650589756818091634 -0.37969316801323854671 0.56367107482574674293 0.51765737185442617374 -0.46528886916511352778 0.33808543902059373654 0.46899617191856846077 -0.076654697822070794189 -0.16150422619015158965 0.22619563119806815332 -0.28772604028513060204 -0.92837722411957868118 -0.15632210613724609183 0.19826089981892963676 -0.42016621209968846307 -0.57825444417379778805 0.98170732630735246804 -0.054427755762039134457 -0.37623394191824155453 0.25472502862132773149 1.3841071631064865155 0.71241332049192540588 -0.44930817269065131958 2.207637769709473563 0.31342638699344838038 -0.52661444701565895965 -0.53166131768872404439 -0.28291761411706672913 -0.78158398181483923484 0.24171088028362194833 -0.91574433574008395897 -1.7160318252672641659 0.20063195419896165395 -2.7700662780195108859 0.68580869963005774981 -0.81702342851527232082 1.5615445020258398312 -0.070346545779571945101 2.7029383429817213091;-1.2151021850590655315 0.79954306715207990042 1.0115393146375917244 4.8621073933805218914 2.5855687511471789897 0.20561394803038110513 0.17469469459772726805 5.7422462334082409185 -2.9396558265603065507 -0.42333409070153188436 0.53455843041559325535 0.77911054931875445284 -0.56820173919712968491 -0.19104434388291269276 -0.069997108410851646698 0.28241904745320023373 0.4916005998224815543 -0.97423405566065968131 0.74298357274887261159 -0.66723393766352501189 -0.50281043459826568753 -0.97676207641621004552 0.5200106555248713569 0.29302132074066777889 0.92229199054426758142 -0.8151344611696753617 -0.23748401915683994834 0.1950084169839674253 0.42490561491762340873 -0.99152653394721568247 0.82649592334466659427 0.56916317345946099149 -0.14288603467631028066 -0.29127680949024969959 -0.1767781552259229394 -0.70472041546912145282 -0.35532366292468237079 -0.73786633898584486069 -0.36064402800066630572 -0.98677334156066542903 -1.2855605011702861962 0.078594253169964878314 -0.4986195496349488665 0.2757263172856549982 -0.85065804475058870437 -1.1159424824376396046 0.071122820342356118939 -1.3553938424350953085 -0.54580947584353967095 0.33544088784759173993 0.7164889407860955961 -0.89474144469759353537 -0.49812903744909459158 -1.8481472725292924508 0.18911396595750809557 -1.5885989220169192127 1.4238936337274665789 -0.049071866774280756274 1.9276914939570517493 0.29378606453140287957 -0.31796701189857690117 -0.65167175715254965773 0.56654392233325978623 6.1312178318803773891;-0.051106408493199174947 0.28826320910167696487 -0.41423980904577073492 -4.903754946808601467 -1.5194673859292757712 -0.28302436438794437157 0.12656313738372498845 1.7644202489890992158 0.54938956662449967006 -0.023348280488469388971 0.18007676618951076741 0.029721166312310261237 -0.22772813967638980137 0.1338586545191803312 -0.2428740032775810187 0.12686105425478252928 0.11349995971154797081 0.18725819776761268298 -0.010249193684625046083 0.2019213886477194686 0.052675728750186140426 -0.070823415416135654388 0.16103147076836296647 -0.11698335925668805479 0.039084442147514157628 -0.18717018947385827277 -0.080837372369241308756 -0.13338772639740015258 0.065563573585755111073 -0.0007167468467902428364 -0.066244575595841653781 -0.007970988239403479711 -0.16060795222316803788 -0.11486289200642199604 -0.038415274101774789239 -0.075604201658344874493 0.078225921043727331128 0.070406955193268616622 -0.10767312035315677876 -0.18936904766056303351 -0.181227727094445068 -0.26621320754896921068 -0.10604620878103679371 0.44492900025245940565 -0.074899538621901712299 -0.61443894053548231415 -0.27407151165952359229 -0.15833986089481297266 -0.33081651979482196158 0.11854462332342130537 0.28803438144693260803 -0.084328909577528574082 -0.050971301747443110985 -0.52086503286417074055 0.17878856297437573097 -0.52375528903620305332 1.1539848610330758483 0.18193123992942678013 0.62399372001419584066 -0.29612121941819014026 -0.087948220508550500885 -0.42327487539640923364 -0.59237931514644748265 1.9580554338660818292];

% Output 1
y1_step1.ymin = -1;
y1_step1.gain = [0.203406878897881;0.206934495434857;0.444444444444444];
y1_step1.xoffset = [-4.8325091601454;-4.91632011569691;-4.5];

% ===== SIMULATION ========

% Format Input Arguments
isCellX = iscell(X);
if ~isCellX
  X = {X};
end

% Dimensions
TS = size(X,2); % timesteps
if ~isempty(X)
  Q = size(X{1},2); % samples/series
else
  Q = 0;
end

% Allocate Outputs
Y = cell(1,TS);

% Time loop
for ts=1:TS

    % Input 1
    Xp1 = mapminmax_apply(X{1,ts},x1_step1);
    
    % Layer 1
    a1 = tansig_apply(repmat(b1,1,Q) + IW1_1*Xp1);
    
    % Layer 2
    a2 = repmat(b2,1,Q) + LW2_1*a1;
    
    % Output 1
    Y{1,ts} = mapminmax_reverse(a2,y1_step1);
end

% Final Delay States
Xf = cell(1,0);
Af = cell(2,0);

% Format Output Arguments
if ~isCellX
  Y = cell2mat(Y);
end
end

% ===== MODULE FUNCTIONS ========

% Map Minimum and Maximum Input Processing Function
function y = mapminmax_apply(x,settings)
  y = bsxfun(@minus,x,settings.xoffset);
  y = bsxfun(@times,y,settings.gain);
  y = bsxfun(@plus,y,settings.ymin);
end

% Sigmoid Symmetric Transfer Function
function a = tansig_apply(n,~)
  a = 2 ./ (1 + exp(-2*n)) - 1;
end

% Map Minimum and Maximum Output Reverse-Processing Function
function x = mapminmax_reverse(y,settings)
  x = bsxfun(@minus,y,settings.ymin);
  x = bsxfun(@rdivide,x,settings.gain);
  x = bsxfun(@plus,x,settings.xoffset);
end
