function [Y,Xf,Af] = CivilSensorCalibv2(X,~,~)
%CIVILSENSORCALIBV2 neural network simulation function.
%
% Auto-generated by MATLAB, 19-May-2026 16:36:57.
% 
% [Y] = CivilSensorCalibv2(X,~,~) takes these arguments:
% 
%   X = 1xTS cell, 1 inputs over TS timesteps
%   Each X{1,ts} = 4xQ matrix, input #1 at timestep ts.
% 
% and returns:
%   Y = 1xTS cell of 1 outputs over TS timesteps.
%   Each Y{1,ts} = 3xQ matrix, output #1 at timestep ts.
% 
% where Q is number of samples (or series) and TS is the number of timesteps.

%#ok<*RPMT0>

% ===== NEURAL NETWORK CONSTANTS =====

% Input 1
x1_step1.xoffset = [13.657314301948;13.6909167319421;13.6643801989676;13.7295254767982];
x1_step1.gain = [91.1203716852888;207.777282290058;603.00671261573;154.857226350956];
x1_step1.ymin = -1;

% Layer 1
b1 = [-2.5232798735817354441;-1.8516923402630616202;-1.3239244862752075349;0.83041905968781559721;-0.31991448987204545995;0.27320711352346316314;0.86768306767762115594;1.3460016049029963625;1.9360480014011505201;2.2862582401425481926];
IW1_1 = [1.3673883331016960518 0.85872691062735595491 1.6070496032360293004 -0.81347158048101575467;1.6972461467713741978 1.9068402062437495026 -0.13319825876844987311 0.3837944217116320833;2.2614279656358262649 -0.76183556187647016866 0.74640196664109437208 0.43157614056316512263;-1.7562783978712963595 -1.3352007277551500852 -0.95999947897085324833 -0.636480935889905175;2.1710129792262975457 -0.72586053116347137859 -0.95830409752146394897 -0.048033208194423172854;1.4542487286471514896 -1.4545018637830235964 0.48092553562253215205 1.3291550931113287337;0.91484483631261892533 -1.4503417840960484142 1.2374612922096388523 1.2745802880009078351;1.8826840155496598062 -1.5951424312775592806 0.13277504031092365877 0.3658282799766735538;1.8447377818858115006 0.063709005379578048656 1.5517523102995709472 0.6221097672353438357;0.57775624233557598686 -0.9859658008322153 0.47647620144246149998 -2.4270253408185555877];

% Layer 2
b2 = [-1.7566923273945274087;-1.2737440856673170053;1.0292072744003482043;0.58529075043945621992;-0.34728993480907183189;-0.21405558360423745934;-0.5895972819452744984;1.0185320013922971594;1.4110517351568336863;1.8327420111165633188];
LW2_1 = [0.7657023220384309159 0.94548758554793110864 -0.1204931652664778946 -0.22348909932784985499 -0.24923375412320861177 -0.28635337248996983739 -0.82436707220217997349 0.51700472454623447316 -0.5052705582027682274 -0.47608680587136320561;0.68135930534432753714 0.041595577583276685529 -0.64277503180364858881 -0.75685441474342551871 -0.11366427083610154691 0.57113995603306688675 -0.44217376207954445233 0.66159416908252921541 1.0037211705135102857 0.028511180433342449281;-0.72491061816867241596 0.64893461028718180117 0.25248910688292774962 0.29686464161223130587 0.48969619291616800494 -0.74878432738716782513 -0.57684984308044073842 -0.39984526290522948155 -0.094880579902620193478 0.94839487643859698984;-0.36019742683340344458 -0.3231907416782613951 0.40392728573599318009 0.21073801111557280419 0.78910628050269782108 0.65995994211782749161 -0.72043851677978421044 0.84624623872447701789 0.5980407853952840469 -0.26844548180880017929;0.32525291333107925196 0.52098425719159091596 -0.72942320681851868791 -0.20170123758607089171 0.37454294813261296282 -0.62154155143647937809 -0.65917405192280986714 0.54308212863588256614 -0.85258870767498462495 0.4646487999328227092;-0.80707101143367565577 0.76363051589179631318 0.7842611443690843398 -0.91388523299709290004 -0.37821242624586048908 -0.024118324340695652258 -0.07724329003331122101 -0.23980016666416717475 -0.23775798864353889228 0.34584944341560835968;-0.33948426812478538217 -0.50646166602110709309 0.090491219883520587763 0.72473648303197502063 -0.8207983201109977367 -0.65202072306212532915 -0.2060902430643204164 -0.85385015939234976123 -0.4375255223860304854 0.35424174490320203823;0.0072484832001268742832 0.50613228998713888362 0.46604217070694264891 0.074224650038817965858 -0.19626749469210075238 0.11169353232957519861 1.0164828665700018639 0.38817278360491042077 -0.84984395107384091972 -0.78478189351352556358;0.75701455510604609422 -0.594761582706206271 0.49404983068517677181 0.020540251701764357384 -0.18666212356833292163 -0.10135731767857313057 0.29662746990088906252 -0.37135700902311291616 0.73750886219462719051 1.0291908933655757874;0.089575590525247300588 0.19683239325625495608 0.80933551993588703777 0.096770715690770156558 -0.47803112205907644094 -0.62485471943958348362 0.7683496615930340834 -0.83648390805136940696 -0.55833514046387267005 0.27911827507384107117];

% Layer 3
b3 = [1.7695017747430143995;-1.4377515952288253409;1.0389769413339400295;-0.62625628185342907539;-0.14279250170323903868;0.20335111108390477308;0.45791083871126792015;-0.90298221029737879562;1.4015353220477209106;-1.7763359914633729542];
LW3_2 = [-0.75644226367592848348 0.12807657463389235386 0.63469715191774134233 -0.85255193574281673552 0.82102566871744719901 0.10217645357018953489 0.017087948446625176452 -0.64731762062245379319 -0.11407289471284859372 0.63814017566527370118;0.530207724323363494 0.81138263348732686531 0.66030576939182161755 0.44411536341832347219 0.30557455664848071075 0.54104757419323634693 -0.44041559975176608477 0.71869076568436185415 0.14205717199283598995 -0.50539789942907831222;-0.67796493387003198272 0.24739980468117708789 0.57723977704544071621 -0.63776670492349685215 -0.50258727025689253765 -0.55999042768955975546 -0.70512938420531323658 0.55675666917784827348 0.35381366233435840307 0.61411071941359918203;0.094037200443330859478 -0.42872192088500093998 -0.6590878896119881647 -0.70225780279710470211 -0.024546811036200284067 -0.62951832392021001006 0.50576511333488904931 0.58196105194678260375 -0.40670375532939956331 -0.94293022121373759603;0.76625809468213668119 0.39236552093597243385 -0.94729325493660421209 -0.35030799893901881648 -0.47689036682022523106 0.36413194272289833853 -0.0020384470581499146598 -0.50461261236831078669 -0.78663048733437512805 -0.14469648432678111627;0.13496850561526696488 -0.14790049534649371554 0.59566884332741232289 0.64630374450670402542 0.35738224205026097868 -0.45225824028516581343 0.65707105321593828329 0.67980593298183800144 0.57163793095396830957 0.87541412512934257961;0.99158384952938427581 -0.78394904052792380167 -0.38290689138899097754 -0.28406485107468421036 0.7458309657330471909 0.61505630403583178012 -0.18903429216099795762 -0.045334344178980738593 -0.6999974429732387371 -0.3359054619319866708;-0.61243615754666413942 0.74393174338114165245 -0.75155799236577858213 0.77120567673652351548 -0.77122948861146245481 -0.11451552448198791534 0.16238956926277775539 -0.049821499466562668701 -0.23846221170661777156 0.73590492178882882524;0.15236692080838482033 -0.63746194631877828307 -0.61216231988276448295 -0.17869790689982742449 0.65669238026398613073 0.80016628741438278194 0.96067219648654667008 0.25298315598178983121 0.18876229918594336632 -0.27059986958075893382;-0.080927301935570711278 0.32900223152582841468 -0.36650471537341944295 0.71545458956432961273 -0.29174144766430576414 0.26686204069717683884 0.94849602224838269748 -0.77715910224137463302 -0.7471381997726201929 -0.36387566471811794155];

% Layer 4
b4 = [0.35533963136810847727;-0.051028948084856758094;0.51539987732689207522];
LW4_3 = [-0.56600828929333324435 -0.081601425884200454175 0.2687087305481912769 -0.43415398227583146262 0.056584013629775574417 -0.69525571288754473009 0.56104462183869086012 -0.22436711673347065066 -0.44073505515142280542 -0.75755347294007557846;0.70632638809939107816 -0.2351634834967610832 -0.46832103063994806602 0.13674907742994091286 0.28958223221426288019 -0.45259388921703785913 -0.82977984748699162854 -0.0058384776685584047207 -0.18985096236281367998 -0.0077145022013878515252;0.57266037504848443795 0.5259808592371787439 -1.0079289373614117586 0.35000630469418941848 -0.86763919134657063736 0.50350900145149768417 0.55801747773938881192 0.20570456034900952424 -0.72059909214387862786 0.27590509111762950845];

% Output 1
y1_step1.ymin = -1;
y1_step1.gain = [0.25;0.25;0.266666666666667];
y1_step1.xoffset = [-4;-4;-4];

% ===== SIMULATION ========

% Format Input Arguments
isCellX = iscell(X);
if ~isCellX
  X = {X};
end

% Dimensions
TS = size(X,2); % timesteps
if ~isempty(X)
  Q = size(X{1},2); % samples/series
else
  Q = 0;
end

% Allocate Outputs
Y = cell(1,TS);

% Time loop
for ts=1:TS

    % Input 1
    Xp1 = mapminmax_apply(X{1,ts},x1_step1);
    
    % Layer 1
    a1 = tansig_apply(repmat(b1,1,Q) + IW1_1*Xp1);
    
    % Layer 2
    a2 = tansig_apply(repmat(b2,1,Q) + LW2_1*a1);
    
    % Layer 3
    a3 = tansig_apply(repmat(b3,1,Q) + LW3_2*a2);
    
    % Layer 4
    a4 = repmat(b4,1,Q) + LW4_3*a3;
    
    % Output 1
    Y{1,ts} = mapminmax_reverse(a4,y1_step1);
end

% Final Delay States
Xf = cell(1,0);
Af = cell(4,0);

% Format Output Arguments
if ~isCellX
  Y = cell2mat(Y);
end
end

% ===== MODULE FUNCTIONS ========

% Map Minimum and Maximum Input Processing Function
function y = mapminmax_apply(x,settings)
  y = bsxfun(@minus,x,settings.xoffset);
  y = bsxfun(@times,y,settings.gain);
  y = bsxfun(@plus,y,settings.ymin);
end

% Sigmoid Symmetric Transfer Function
function a = tansig_apply(n,~)
  a = 2 ./ (1 + exp(-2*n)) - 1;
end

% Map Minimum and Maximum Output Reverse-Processing Function
function x = mapminmax_reverse(y,settings)
  x = bsxfun(@minus,y,settings.ymin);
  x = bsxfun(@rdivide,x,settings.gain);
  x = bsxfun(@plus,x,settings.xoffset);
end
